<?xml version="1.0"?>
<opencv_storage>
<my_svm type_id="opencv-ml-svm">
  <svm_type>C_SVC</svm_type>
  <kernel><type>RBF</type>
    <gamma>1.</gamma></kernel>
  <C>1.</C>
  <term_criteria><epsilon>2.2204460492503131e-16</epsilon>
    <iterations>100000</iterations></term_criteria>
  <var_all>64</var_all>
  <var_count>64</var_count>
  <class_count>2</class_count>
  <class_labels type_id="opencv-matrix">
    <rows>1</rows>
    <cols>2</cols>
    <dt>i</dt>
    <data>
      -1 1</data></class_labels>
  <sv_total>2709</sv_total>
  <support_vectors>
    <_>
      -9.98217054e-03 1.93137443e-03 1.00080250e-02 2.06528418e-03
      -4.91584390e-02 9.03930143e-03 4.93604764e-02 9.15888138e-03
      -2.33395863e-03 3.02961515e-03 8.05452932e-03 4.88686608e-03
      2.74983031e-04 1.60621852e-03 8.52039841e-04 1.63131987e-03
      -7.18106702e-02 6.21210784e-03 7.30048120e-02 7.22288713e-03
      -3.38233173e-01 4.93318513e-02 3.45779836e-01 8.92628953e-02
      2.50783563e-01 3.45728695e-01 2.52855241e-01 3.45728695e-01
      1.29211904e-03 4.43052836e-02 1.08512063e-02 4.92879190e-02
      -7.44329765e-02 -1.48190511e-03 7.45896101e-02 5.65714901e-03
      -2.56890118e-01 2.28405148e-02 2.57322609e-01 4.90848050e-02
      3.04342896e-01 -1.01463348e-01 3.21656227e-01 1.03523701e-01
      2.69228476e-03 4.35506180e-03 9.36691370e-03 1.24333566e-02
      -1.06690098e-02 7.54436696e-05 1.10615138e-02 1.00572046e-03
      -2.81027444e-02 2.43518641e-03 3.03685032e-02 6.83146575e-03
      3.27493772e-02 1.81179363e-02 4.25896421e-02 2.05816943e-02
      3.35163483e-03 2.49938760e-03 3.67364055e-03 2.84254388e-03</_>
    <_>
      -1.43053394e-03 1.63183792e-03 8.20662268e-03 1.71194680e-03
      -5.97461239e-02 7.48554803e-03 6.07312992e-02 8.62394646e-03
      7.21767917e-02 1.40228989e-02 7.21767917e-02 1.55869965e-02
      5.59208507e-04 1.67931154e-04 1.01330807e-03 9.65056068e-04
      8.39035679e-03 3.56755219e-03 5.08578457e-02 8.19812715e-03
      -2.29806647e-01 3.59230697e-01 5.14428616e-01 3.59230697e-01
      2.88458884e-01 2.28216872e-01 2.88458884e-01 2.29730517e-01
      3.19070835e-03 2.19201460e-03 4.89538768e-03 8.60590860e-03
      1.52009102e-02 -2.15862170e-02 3.86251658e-02 2.17604171e-02
      -1.33109391e-01 2.66976245e-02 2.02055067e-01 1.54194936e-01
      -1.22554635e-03 -1.11519799e-01 4.82138731e-02 1.31394833e-01
      8.53970088e-03 -2.26848125e-02 1.18614417e-02 2.29283329e-02
      5.63636539e-04 -1.20617002e-02 2.39652931e-03 1.20617002e-02
      -6.01190282e-03 -6.26213178e-02 1.28461113e-02 6.26213178e-02
      -3.24957143e-03 -4.74407375e-02 9.37292539e-03 4.74407375e-02
      1.34735880e-03 -6.56440854e-03 1.70208490e-03 6.56440854e-03</_>
    <_>
      1.07732811e-03 2.47909618e-03 1.09861698e-03 2.48149526e-03
      4.83159870e-02 2.72136927e-03 4.83159870e-02 1.31186396e-02
      4.71172621e-03 -2.78587993e-02 8.96914490e-03 2.78587993e-02
      1.41943968e-03 -3.65827442e-03 1.47995993e-03 3.65827442e-03
      1.47519158e-02 2.41948888e-02 1.47908870e-02 2.41948888e-02
      5.93250506e-02 1.80493847e-01 1.28263891e-01 1.84536040e-01
      -7.08176121e-02 -1.64469585e-01 1.02148831e-01 1.74183786e-01
      8.96916352e-03 -2.93970015e-02 8.96916352e-03 2.93970015e-02
      2.70676222e-02 3.80780362e-02 2.70676222e-02 3.80780362e-02
      -6.80070445e-02 2.62157679e-01 2.01610565e-01 2.62157679e-01
      -5.26440203e-01 -9.44335684e-02 5.48246801e-01 1.72801793e-01
      1.42729506e-02 -4.01587300e-02 1.43583892e-02 4.01587300e-02
      2.87343445e-03 2.22496898e-03 2.87343445e-03 2.26378464e-03
      -1.73757896e-02 3.29588703e-03 1.86997689e-02 4.61234199e-03
      -1.05163321e-01 1.49212908e-02 1.05223008e-01 1.51148066e-02
      2.34023755e-04 6.47861336e-04 5.04151743e-04 1.15555525e-03</_>
    <_>
      2.77087349e-03 7.19879055e-04 2.77087349e-03 7.50525738e-04
      3.41104716e-02 1.03871310e-02 3.41104716e-02 1.04123484e-02
      4.23955731e-02 1.68499351e-02 4.25276980e-02 1.69820599e-02
      -2.46051000e-04 1.18486023e-04 5.11442660e-04 3.69225862e-04
      1.63591132e-02 5.76588744e-03 1.63591132e-02 7.37156719e-03
      2.16753259e-01 -3.83134820e-02 2.16753259e-01 8.04453418e-02
      9.19231400e-02 -5.01065254e-01 2.06926778e-01 5.17670095e-01
      -1.65265668e-02 -1.06054977e-01 1.65265668e-02 1.06054977e-01
      -5.83635597e-03 4.96782511e-02 1.42888334e-02 4.96782511e-02
      -1.34076744e-01 3.96827012e-02 1.47690684e-01 1.13620043e-01
      -2.81433523e-01 -1.13150939e-01 2.81433523e-01 2.47381404e-01
      -4.03744727e-03 -1.38305696e-02 5.79078170e-03 1.78650450e-02
      -3.96293355e-03 2.03154399e-03 3.96293355e-03 2.03188183e-03
      -2.45334692e-02 1.34412395e-02 2.45334692e-02 1.36414608e-02
      -2.73091290e-02 3.00062578e-02 2.73091290e-02 3.00062578e-02
      -2.59422557e-03 4.60096635e-03 2.60340935e-03 4.60096635e-03</_>
    <_>
      6.73785154e-03 -1.07407365e-02 6.84873294e-03 1.07407365e-02
      5.57112768e-02 -5.10651320e-02 5.57112768e-02 5.10651320e-02
      3.66341136e-02 -6.63000345e-02 3.66569571e-02 6.63000345e-02
      -4.64437949e-03 -1.11791128e-02 5.14260074e-03 1.11791128e-02
      7.26814270e-02 5.54824853e-03 7.28387311e-02 4.08895239e-02
      2.96174169e-01 -2.25757807e-02 3.01587641e-01 2.30061680e-01
      -2.42637675e-02 -3.22159737e-01 1.65065393e-01 3.55653137e-01
      -3.61706577e-02 -8.43928829e-02 3.65296453e-02 8.43928829e-02
      6.28393888e-02 7.19210356e-02 6.28393888e-02 7.19210356e-02
      -6.01591356e-02 1.90289065e-01 3.02923888e-01 2.11680189e-01
      -2.93874502e-01 -1.51616573e-01 2.97439694e-01 1.61439508e-01
      -5.97848073e-02 -5.05642556e-02 5.97848073e-02 5.05870990e-02
      4.84101381e-03 1.41323796e-02 4.95949714e-03 1.41323796e-02
      -6.81377351e-02 3.93250957e-02 6.82465360e-02 4.43972759e-02
      -7.95072392e-02 -1.02651669e-02 7.95072392e-02 1.24924481e-02
      -7.56146433e-03 -6.37719233e-04 7.56146433e-03 1.62260642e-03</_>
    <_>
      4.28357482e-04 -6.64871186e-04 1.87392707e-03 1.43307704e-03
      9.50340182e-02 -2.37498786e-02 9.50340182e-02 2.45735329e-02
      -2.41819993e-02 -3.10116149e-02 3.04448735e-02 3.14668715e-02
      -7.32321013e-03 -3.55817587e-03 7.32321013e-03 3.55817587e-03
      -9.16630786e-04 2.97544654e-02 7.61797512e-03 2.97544654e-02
      4.50302899e-01 -3.09993364e-02 4.50302899e-01 1.64973944e-01
      -2.21137077e-01 -2.03614175e-01 2.21137077e-01 2.06807330e-01
      -3.19058932e-02 -2.69407202e-02 3.19058932e-02 2.69407202e-02
      -2.46118149e-03 4.93653379e-02 5.64425718e-03 4.93653379e-02
      1.47301435e-01 2.01778755e-01 1.54500365e-01 2.01778755e-01
      -3.12535852e-01 3.91952060e-02 3.12535852e-01 1.34254754e-01
      -9.65450611e-03 5.56621794e-03 1.51708536e-02 2.05550939e-02
      -8.11072765e-04 4.97124111e-03 1.05540908e-03 4.97124111e-03
      2.09560129e-03 3.07748150e-02 8.08999874e-03 3.08590718e-02
      -4.50901911e-02 3.39942425e-02 4.50901911e-02 3.43593433e-02
      1.59413274e-03 5.63496258e-03 1.71071768e-03 5.63496258e-03</_>
    <_>
      -1.90643745e-03 -8.03296454e-03 2.17254576e-03 8.03296454e-03
      3.87142114e-02 -4.76514176e-02 4.20087352e-02 4.76514176e-02
      -8.71570781e-04 -3.23963426e-02 1.23776384e-02 3.23963426e-02
      1.59441057e-04 -3.83060332e-03 1.24585815e-03 3.83156538e-03
      2.73327087e-03 -2.22895537e-02 1.15872705e-02 2.51165032e-02
      3.67129982e-01 -1.49087965e-01 3.73879313e-01 1.76507547e-01
      -7.33517930e-02 -2.41326571e-01 1.23841256e-01 2.41326571e-01
      3.62907001e-03 -4.36505266e-02 7.78308790e-03 4.36505266e-02
      2.87267659e-02 2.57265288e-02 2.87267659e-02 2.61761583e-02
      2.80004591e-01 1.48916408e-01 2.80004591e-01 1.85521409e-01
      -3.47443283e-01 -5.37340306e-02 3.52532387e-01 1.66386023e-01
      -4.28389339e-03 -4.51749526e-02 8.53692926e-03 4.51749526e-02
      6.14645844e-03 3.89482058e-03 6.14645844e-03 3.89482058e-03
      2.94011980e-02 4.10593338e-02 2.98183411e-02 4.10593338e-02
      -9.03419107e-02 2.83175893e-02 9.03419107e-02 3.10370587e-02
      -9.51987109e-04 -1.87143113e-03 2.07010889e-03 2.80810031e-03</_>
    <_>
      6.93579670e-03 1.83271070e-04 6.93579670e-03 1.57332618e-03
      8.34325850e-02 1.22437757e-02 8.34325850e-02 1.31629286e-02
      6.59791082e-02 -2.55263913e-02 7.55926371e-02 3.37546468e-02
      -6.79425709e-03 -1.00733358e-02 6.93009002e-03 1.01532126e-02
      4.94119637e-02 2.50350311e-02 4.94119637e-02 2.63936743e-02
      3.58098924e-01 -6.01712149e-03 3.58098924e-01 1.45430893e-01
      4.50760946e-02 -3.16951662e-01 2.80330509e-01 3.16951662e-01
      -5.59937395e-02 -8.43311474e-02 5.59937395e-02 8.43311474e-02
      3.00566107e-02 6.51218817e-02 3.30821238e-02 6.51218817e-02
      6.82270452e-02 2.07122967e-01 1.44503042e-01 2.07122967e-01
      -2.81786442e-01 -1.35664403e-01 3.30426723e-01 1.72864109e-01
      -6.03605621e-02 -2.94392817e-02 6.03605621e-02 4.53195907e-02
      -1.26210088e-03 1.32364314e-02 3.85093712e-03 1.32364314e-02
      -1.71534773e-02 5.40564172e-02 2.40492392e-02 5.40564172e-02
      -6.39478564e-02 4.02308330e-02 6.39478564e-02 4.02308330e-02
      -4.51987889e-03 9.30999126e-03 4.51987889e-03 9.30999126e-03</_>
    <_>
      5.97413571e-04 -1.23482023e-03 1.01495895e-03 1.32894912e-03
      4.23695473e-03 8.90322321e-04 6.41844328e-03 5.04571572e-03
      -2.69079325e-03 3.03926389e-03 6.13277499e-03 6.21273043e-03
      -3.02761747e-03 -1.92841364e-03 3.07439896e-03 1.99161610e-03
      5.38433716e-03 -2.12909859e-02 2.53011361e-02 4.68537360e-02
      7.07781240e-02 -3.52896154e-01 7.18273744e-02 3.52896154e-01
      -9.99708995e-02 -3.47871870e-01 1.04766198e-01 3.61944467e-01
      -5.39536867e-03 -3.03612789e-03 2.82368399e-02 5.02849109e-02
      -1.12819942e-02 2.25391965e-02 1.75164863e-02 3.18478495e-02
      2.99727060e-02 3.10387313e-01 5.80247752e-02 3.16590428e-01
      2.84160618e-02 3.53917897e-01 5.13396859e-02 3.56330782e-01
      7.26766465e-03 2.62308829e-02 1.28601007e-02 2.67894249e-02
      5.04248589e-03 -4.69824485e-03 5.28930081e-03 4.91776085e-03
      1.46622527e-02 -9.07689985e-03 1.53311109e-02 1.03193168e-02
      1.66821224e-03 -2.85203964e-03 5.02091506e-03 3.43845179e-03
      -1.50829111e-03 -3.14827776e-04 1.50829111e-03 9.35933320e-04</_>
    <_>
      7.79144699e-03 -3.15200118e-03 7.79840676e-03 4.01083101e-03
      7.95080960e-02 -2.48457901e-02 7.95080960e-02 2.48457901e-02
      4.41113003e-02 -3.29672843e-02 4.80892323e-02 3.29672843e-02
      7.10146828e-03 -1.08459983e-02 7.66474800e-03 1.08459983e-02
      3.69654372e-02 6.89560696e-02 3.76886465e-02 6.89560696e-02
      2.63010859e-01 2.52439201e-01 3.33980352e-01 2.76270360e-01
      5.68001308e-02 -1.88989714e-01 1.40083089e-01 1.92586541e-01
      9.98096168e-03 -6.51802197e-02 1.74657907e-02 6.51802197e-02
      1.18630165e-02 1.01879254e-01 1.78524069e-02 1.01879254e-01
      -2.47478500e-01 2.33454913e-01 3.56549799e-01 2.37051755e-01
      -2.46993974e-01 -1.32678643e-01 2.46993974e-01 2.03888297e-01
      -2.24451590e-02 -6.50534928e-02 2.25897394e-02 6.50534928e-02
      -1.66883343e-03 7.60903908e-03 3.30311316e-03 9.24662966e-03
      -9.89357904e-02 6.47070399e-03 9.89357904e-02 2.78353728e-02
      -6.72212914e-02 -2.06338167e-02 6.72212914e-02 2.18877532e-02
      -7.57840928e-03 -2.95090768e-03 7.57840928e-03 2.95090768e-03</_>
    <_>
      -2.27915286e-03 2.29766523e-03 2.27915286e-03 3.09437467e-03
      1.09518632e-01 -7.05470098e-04 1.12816155e-01 1.20858653e-02
      4.08029556e-02 -2.75073163e-02 4.93990257e-02 2.84762252e-02
      -5.67327440e-03 -4.67212917e-03 5.67327440e-03 4.67212917e-03
      -1.51008749e-02 4.62735482e-02 1.51008749e-02 4.62735482e-02
      3.56186658e-01 1.75226122e-01 3.67491335e-01 2.02599913e-01
      1.28483325e-01 -2.07668781e-01 3.01390976e-01 2.11929783e-01
      -3.67916785e-02 -4.69619632e-02 3.67916785e-02 4.69619632e-02
      -2.35601570e-02 4.89521623e-02 2.37496495e-02 4.89521623e-02
      3.55652906e-02 3.04643363e-01 1.28869116e-01 3.04643363e-01
      -1.90652877e-01 -7.83456862e-02 3.64352018e-01 1.67783082e-01
      -2.47145798e-02 -2.89412681e-02 2.47145798e-02 2.97282226e-02
      -2.26166355e-03 4.69670957e-03 2.29421700e-03 4.71664779e-03
      -1.14479978e-02 3.07665151e-02 1.35156997e-02 3.07665151e-02
      -6.55763820e-02 2.98268273e-02 6.55763820e-02 2.98268273e-02
      -9.30726063e-04 4.38309368e-03 1.14751107e-03 4.38309368e-03</_>
    <_>
      -2.47059827e-04 -7.15386448e-03 5.44790237e-04 7.15386448e-03
      7.31180310e-02 -4.04726528e-02 7.31180310e-02 4.04726528e-02
      7.15692341e-03 -3.04260645e-02 1.43713057e-02 3.04260645e-02
      1.18203065e-03 -4.26907046e-03 1.27040595e-03 4.26907046e-03
      1.36378398e-02 7.12963566e-03 1.41653735e-02 2.34305896e-02
      4.47396219e-01 1.00116543e-02 4.47396219e-01 1.32973909e-01
      -1.05918543e-02 -2.31068656e-01 7.43049681e-02 2.31068656e-01
      1.10603096e-02 -4.48234901e-02 1.13546327e-02 4.48234901e-02
      2.91597750e-02 3.87898609e-02 2.91597750e-02 3.87898609e-02
      1.83906913e-01 2.15267345e-01 1.87450528e-01 2.24143922e-01
      -3.01043659e-01 -1.59826398e-01 3.17615807e-01 1.79307029e-01
      1.16575705e-02 -4.35528196e-02 1.20070362e-02 4.35528196e-02
      6.31464971e-03 5.06448140e-03 6.31464971e-03 5.06448140e-03
      -9.77532356e-04 3.59931514e-02 2.17518993e-02 3.59931514e-02
      -1.01489827e-01 2.36172418e-04 1.03569172e-01 1.40605737e-02
      1.13006937e-03 -4.77290992e-03 1.17112102e-03 4.87771165e-03</_>
    <_>
      8.46446585e-03 4.22881590e-03 8.46446585e-03 4.22881590e-03
      6.56950101e-02 2.85785627e-02 6.56950101e-02 2.92885248e-02
      1.01669773e-01 -7.27481581e-03 1.01669773e-01 2.46349610e-02
      3.63734807e-03 -7.48053798e-03 4.27346397e-03 8.30179080e-03
      2.44366266e-02 7.26004690e-02 2.86541786e-02 7.26004690e-02
      2.39475295e-01 1.81878209e-01 2.43374303e-01 2.07522213e-01
      2.71263272e-01 -2.01090649e-01 3.32887411e-01 2.21637741e-01
      -2.19225138e-02 -9.80456546e-02 2.86121573e-02 9.80456546e-02
      -2.41906513e-02 9.16088223e-02 3.01254895e-02 9.16088223e-02
      -8.21847990e-02 2.98977584e-01 1.51424274e-01 2.98977584e-01
      -2.45650828e-01 -1.12399563e-01 2.90231496e-01 1.96883902e-01
      -5.36543131e-02 -7.18030632e-02 5.36543131e-02 7.18304440e-02
      -9.94600821e-03 1.27508054e-02 1.03001716e-02 1.27508054e-02
      -6.55792728e-02 6.10903054e-02 6.55792728e-02 6.10903054e-02
      -7.20596462e-02 3.75981592e-02 7.20596462e-02 3.75981592e-02
      -9.49708372e-03 6.48550317e-03 9.49708372e-03 6.48550317e-03</_>
    <_>
      6.18856121e-03 -6.64572185e-03 6.18856121e-03 6.64572185e-03
      5.24687208e-02 -3.97553928e-02 5.24687208e-02 3.97553928e-02
      4.81536500e-02 -3.48022319e-02 4.81536500e-02 3.48022319e-02
      3.06006754e-03 -2.61453050e-03 3.09154228e-03 2.62858463e-03
      5.12173474e-02 4.79604155e-02 5.12173474e-02 5.76505587e-02
      3.25642616e-01 2.10113913e-01 3.36010963e-01 2.61915267e-01
      8.09147879e-02 -1.76954880e-01 1.31819695e-01 1.76954880e-01
      1.42441990e-04 -7.23235682e-02 2.07578558e-02 7.23235682e-02
      3.34471017e-02 1.02854177e-01 3.44911218e-02 1.02854177e-01
      -2.59024501e-01 1.35327935e-01 3.41519713e-01 2.12286130e-01
      -2.14073688e-01 -2.65075475e-01 2.34810412e-01 2.65075475e-01
      -3.61838080e-02 -6.90056607e-02 3.66456360e-02 6.90056607e-02
      -3.98453837e-03 1.80906733e-03 5.27648395e-03 3.98866553e-03
      -8.36691707e-02 -2.11129822e-02 8.36691707e-02 2.16349903e-02
      -4.55509648e-02 -1.77956782e-02 4.55509648e-02 1.79095138e-02
      -5.31367678e-03 -1.08730432e-03 5.41859306e-03 1.28136715e-03</_>
    <_>
      3.82678071e-03 3.95559939e-03 4.88665607e-03 3.97847407e-03
      1.05950311e-01 4.11467114e-03 1.05950311e-01 9.20988619e-03
      9.11010802e-03 -4.99546789e-02 4.47438583e-02 4.99546789e-02
      -9.79416631e-03 -7.32780201e-03 9.79416631e-03 7.32780201e-03
      1.96849462e-03 5.32259271e-02 1.20152561e-02 5.32259271e-02
      3.53642702e-01 6.36892073e-05 3.53642702e-01 1.76048577e-01
      -2.12358683e-01 -3.21093351e-01 2.27057055e-01 3.21093351e-01
      -3.67665961e-02 -4.13586348e-02 3.67665961e-02 4.13586348e-02
      -6.62440201e-03 5.62584735e-02 1.30259432e-02 5.62584735e-02
      -8.32614824e-02 2.19224587e-01 1.53179035e-01 2.25992963e-01
      -3.13802302e-01 -3.42205241e-02 3.23694736e-01 1.19737700e-01
      -2.43602321e-02 -2.74420772e-02 2.44290847e-02 2.74420772e-02
      -1.37676124e-03 6.22622482e-03 1.43204140e-03 6.23086374e-03
      -3.65711860e-02 3.02485432e-02 3.65711860e-02 3.02485432e-02
      -7.50988498e-02 1.77278928e-02 7.50988498e-02 1.79351363e-02
      -4.58995346e-03 2.34512263e-03 4.67704702e-03 3.68730351e-03</_>
    <_>
      5.95304556e-03 1.03127770e-03 5.95304556e-03 1.12369366e-03
      4.55362536e-02 9.85297468e-03 4.55362536e-02 1.07452059e-02
      7.86483362e-02 2.04809476e-02 7.86483362e-02 2.08928939e-02
      5.22667496e-03 -1.19032233e-03 6.00972632e-03 4.67767566e-03
      3.58016379e-02 8.19949210e-02 3.58016379e-02 8.19949210e-02
      2.11103603e-01 3.15408081e-01 2.12100998e-01 3.15408081e-01
      2.51344413e-01 -6.64570257e-02 3.10680479e-01 2.21886754e-01
      -3.52229662e-02 -9.84459370e-02 3.79903093e-02 9.84459370e-02
      -6.75053243e-03 8.11297074e-02 2.09998284e-02 8.11297074e-02
      -1.58648476e-01 2.33926341e-01 1.80458024e-01 2.33926341e-01
      -2.73680151e-01 -1.51809067e-01 3.10718685e-01 2.07596913e-01
      -4.91327941e-02 -3.65596972e-02 4.91327941e-02 5.40780947e-02
      -5.36316074e-03 4.85762069e-03 5.37924562e-03 4.86551598e-03
      -4.53218445e-02 3.44355255e-02 4.53218445e-02 3.44355255e-02
      -5.07157817e-02 3.82813215e-02 5.07157817e-02 3.82813215e-02
      -5.66720637e-03 6.43950747e-03 5.66720637e-03 6.43950747e-03</_>
    <_>
      -2.23319489e-03 -5.51062496e-03 2.25090375e-03 5.51530253e-03
      -4.68671694e-02 -7.26674497e-02 4.68671694e-02 7.26674497e-02
      -5.85948341e-02 -6.59980401e-02 5.85948341e-02 6.59980401e-02
      -4.34525682e-05 -2.41363212e-03 2.90993135e-03 3.08365095e-03
      -1.55324312e-02 -9.34485495e-02 2.11152434e-02 9.34485495e-02
      -1.32076845e-01 -2.80760258e-01 1.76730558e-01 2.88013250e-01
      -2.20359415e-01 -5.95115833e-02 2.50079006e-01 1.34837836e-01
      4.52126898e-02 2.86244694e-02 4.52126898e-02 2.90247519e-02
      -1.04882736e-02 -3.39301443e-03 2.03165133e-02 2.48725805e-02
      2.13845357e-01 8.32198635e-02 2.13845357e-01 1.75055712e-01
      5.95690534e-02 4.38072741e-01 1.98869064e-01 4.38072741e-01
      5.40327616e-02 8.64301622e-02 5.40327616e-02 8.64301622e-02
      -1.94292131e-03 6.30115950e-03 2.81421072e-03 6.30115950e-03
      5.44150807e-02 7.16754422e-02 5.44150807e-02 7.16754422e-02
      2.92043500e-02 5.59500307e-02 2.92043500e-02 5.60518987e-02
      2.90517672e-03 4.14798036e-03 2.90956371e-03 4.35018679e-03</_>
    <_>
      3.22007062e-03 -4.78982693e-03 3.22007062e-03 4.78982693e-03
      1.90901943e-02 -2.80320812e-02 1.90901943e-02 2.80320812e-02
      1.30200433e-02 -3.51541676e-02 1.93626415e-02 3.51541676e-02
      -9.45937820e-03 -1.46393841e-02 9.48854163e-03 1.46393841e-02
      3.91697176e-02 -5.42971790e-02 3.91697176e-02 5.42971790e-02
      2.06160337e-01 -1.61116183e-01 2.09763005e-01 1.66586474e-01
      -1.83511317e-01 -2.72963226e-01 2.06334054e-01 2.72963226e-01
      -4.53439765e-02 -2.31569372e-02 4.53439765e-02 2.52193380e-02
      9.11994576e-02 3.14353332e-02 9.11994576e-02 5.82658686e-02
      1.86228037e-01 3.54975432e-01 3.10338467e-01 3.62166494e-01
      -2.63024867e-01 1.50071308e-01 2.63024867e-01 1.50071308e-01
      -3.04374620e-02 1.33253504e-02 3.04374620e-02 1.33253504e-02
      1.53393177e-02 2.07300708e-02 1.53393177e-02 2.07300708e-02
      -3.46692428e-02 5.50057180e-02 4.82981540e-02 5.50057180e-02
      -6.17741644e-02 2.07914785e-02 6.17741644e-02 2.07914785e-02
      -5.77289145e-03 1.36564684e-03 5.77289145e-03 1.57576334e-03</_>
    <_>
      2.35492159e-02 -1.37557508e-02 2.35492159e-02 1.37557508e-02
      4.59746048e-02 -1.03683732e-01 7.52996802e-02 1.03683732e-01
      -5.84333874e-02 -5.26601970e-02 5.84333874e-02 5.26601970e-02
      -8.20284616e-03 -4.07489249e-03 8.20284616e-03 4.08079848e-03
      7.27730989e-02 4.71832007e-02 7.27730989e-02 5.16202077e-02
      3.07602137e-01 -2.17308313e-01 3.13367933e-01 2.57958591e-01
      -2.31201664e-01 -2.59964675e-01 2.31201664e-01 2.59964675e-01
      -3.86786647e-02 -2.72078719e-02 3.86786647e-02 2.72078719e-02
      2.42843274e-02 5.05435690e-02 2.42843274e-02 5.05435690e-02
      1.02589868e-01 2.41447389e-01 1.17560677e-01 2.41447389e-01
      -2.85808295e-01 1.68508381e-01 2.85808295e-01 1.77049130e-01
      -4.49325889e-02 -3.89213860e-03 4.49325889e-02 2.29399875e-02
      2.04549846e-03 6.54396880e-03 2.04549846e-03 6.54396880e-03
      1.20172147e-02 3.80604304e-02 1.21937580e-02 3.80604304e-02
      -3.56385224e-02 5.73022738e-02 3.95668745e-02 5.73022738e-02
      -1.28663881e-02 8.17412976e-03 1.28663881e-02 8.24382063e-03</_>
    <_>
      1.46888625e-02 -1.12980008e-02 1.46888625e-02 1.12980008e-02
      1.16072781e-02 -5.43900765e-02 2.74212714e-02 5.43900765e-02
      -1.58570781e-02 -4.56610918e-02 1.58570781e-02 4.56610918e-02
      -1.78563560e-03 -6.55568065e-03 1.79341342e-03 6.55568065e-03
      5.74837290e-02 -8.51790700e-03 5.74837290e-02 1.67021696e-02
      1.90291107e-01 -1.84404746e-01 2.65113235e-01 1.91078737e-01
      -1.61921114e-01 -2.30232418e-01 1.61921114e-01 2.39941329e-01
      -1.51313534e-02 -5.26493080e-02 1.51313534e-02 5.26493080e-02
      4.36361656e-02 2.64244601e-02 4.36361656e-02 2.64244601e-02
      1.80755705e-01 1.69437841e-01 1.80755705e-01 1.91689387e-01
      -4.33097333e-01 7.86936581e-02 4.33097333e-01 2.23410025e-01
      -5.36453202e-02 -6.75394535e-02 5.36453202e-02 6.75394535e-02
      8.08789581e-03 3.72456829e-03 8.08789581e-03 3.72456829e-03
      5.38493060e-02 5.77331707e-02 5.38493060e-02 5.77331707e-02
      -8.85775462e-02 1.05659135e-01 9.42630172e-02 1.05659135e-01
      -1.92417260e-02 9.81954299e-03 1.92417260e-02 1.00328410e-02</_>
    <_>
      4.96692397e-03 -1.02638337e-03 4.96692397e-03 1.06795901e-03
      6.17849045e-02 -1.98233631e-02 6.17849045e-02 1.98233631e-02
      4.84889783e-02 -5.60384803e-02 5.53720891e-02 5.60384803e-02
      -1.36508979e-02 -1.95160117e-02 1.36508979e-02 1.95160117e-02
      2.57514697e-02 -1.32755348e-02 2.57514697e-02 1.34819839e-02
      2.72942096e-01 -1.59365296e-01 2.72942096e-01 1.59365296e-01
      -1.13184936e-01 -3.85458857e-01 2.81188846e-01 3.85458857e-01
      -9.82821062e-02 -5.14214337e-02 9.82821062e-02 6.62256032e-02
      3.61543708e-02 9.27686598e-03 3.61543708e-02 1.65326186e-02
      2.34358341e-01 2.38323897e-01 2.45559007e-01 2.40914717e-01
      -1.78573444e-01 1.39685452e-01 2.02848941e-01 1.39685452e-01
      -4.55508567e-02 5.14359772e-02 4.55508567e-02 5.14359772e-02
      1.11880638e-02 1.48447566e-02 1.12641575e-02 1.48447566e-02
      9.72903450e-04 3.86764780e-02 1.58065818e-02 3.86764780e-02
      -2.59284861e-02 3.12134009e-02 2.59284861e-02 3.12134009e-02
      -2.71262438e-03 5.41584007e-03 2.71262438e-03 5.41584007e-03</_>
    <_>
      -5.83410170e-03 5.79846837e-03 5.95631870e-03 6.05675718e-03
      2.65474133e-02 -3.11358012e-02 3.79694477e-02 3.77613269e-02
      3.54564115e-02 -3.02390866e-02 3.54564115e-02 3.04406937e-02
      8.26591335e-04 -6.73586503e-04 8.76260630e-04 8.63743073e-04
      -1.98255349e-02 1.89779457e-02 1.98255349e-02 1.90301314e-02
      -2.66894847e-01 2.57454544e-01 3.00363451e-01 2.82209307e-01
      2.47684881e-01 -1.30250052e-01 2.70448744e-01 2.10831955e-01
      2.31107995e-02 -2.28923857e-02 2.38555782e-02 2.29829215e-02
      -9.37987678e-03 -2.37454753e-03 9.94677655e-03 6.86637312e-03
      -2.17930838e-01 -8.37341975e-03 2.17930838e-01 1.02565810e-01
      -2.45289385e-01 -2.09021807e-01 2.86749929e-01 2.92049795e-01
      4.65940796e-02 -8.49930570e-02 4.65940796e-02 8.49930570e-02
      -3.06896959e-03 -3.97493038e-03 3.06896959e-03 3.97493038e-03
      -7.09431469e-02 -8.60132053e-02 7.09431469e-02 8.60132053e-02
      -9.97031108e-02 -1.45347059e-01 9.97031108e-02 1.45347059e-01
      1.14470376e-02 -1.90340504e-02 1.14470376e-02 1.90340504e-02</_>
    <_>
      -3.95414681e-04 -8.41796922e-04 1.34250033e-03 1.06467272e-03
      8.09926167e-03 -3.89832049e-03 3.87936793e-02 1.23261539e-02
      2.23854017e-02 -5.03303064e-03 2.48625390e-02 4.65042219e-02
      4.20884835e-03 -1.00019500e-02 4.26040450e-03 1.00429906e-02
      1.06510578e-03 1.54594127e-02 5.76695567e-03 2.25250404e-02
      2.94348169e-02 1.72353044e-01 2.54208714e-01 1.94062784e-01
      2.66658843e-01 -8.04321989e-02 2.79806167e-01 2.91060418e-01
      -5.15789771e-03 2.44937930e-02 1.32360449e-02 3.02102175e-02
      8.61657783e-03 3.98956658e-03 9.96373221e-03 4.01350632e-02
      -3.48625571e-01 -3.90307829e-02 3.93022567e-01 2.40890533e-01
      5.46640232e-02 -3.10321033e-01 1.70780391e-01 3.68558198e-01
      1.89219844e-02 -6.77985251e-02 1.99691579e-02 7.73592144e-02
      -5.10686601e-04 -4.73886589e-03 6.50647271e-04 4.76896577e-03
      -1.35462489e-02 -2.76651680e-02 1.60453320e-02 2.79098712e-02
      2.63035204e-02 1.88750103e-02 3.81058007e-02 3.29064205e-02
      -3.62655777e-03 6.52087759e-03 4.10258630e-03 1.04668904e-02</_>
    <_>
      -3.52915423e-03 7.09455984e-04 3.56418476e-03 4.01333207e-03
      -2.81905401e-02 -1.23181595e-02 2.81905401e-02 1.53017798e-02
      5.96476234e-02 -9.14263912e-03 6.10481016e-02 1.27404882e-02
      1.33810071e-02 -3.35448235e-03 1.34750977e-02 3.53157264e-03
      -4.53014001e-02 3.65555771e-02 4.53014001e-02 3.78525369e-02
      -2.82286376e-01 2.06930399e-01 2.82286376e-01 2.10301727e-01
      1.93844572e-01 5.33296391e-02 2.98568428e-01 1.17640458e-01
      1.09679371e-01 -1.65180825e-02 1.09679371e-01 1.69255920e-02
      -2.61660330e-02 -4.06502336e-02 2.61660330e-02 4.06502336e-02
      -3.09762061e-01 -2.50148058e-01 3.09762061e-01 2.50148058e-01
      9.03574452e-02 -2.40020290e-01 2.60400414e-01 2.51299530e-01
      1.13790572e-01 -2.44438592e-02 1.13790572e-01 2.44438592e-02
      -7.34991720e-03 -1.28729809e-02 7.34991720e-03 1.28729809e-02
      -3.34485993e-02 -7.96461105e-02 3.38894837e-02 8.01729932e-02
      2.88434587e-02 -5.00444435e-02 3.09735648e-02 5.01799621e-02
      2.02952083e-02 -6.59501646e-03 2.02952083e-02 6.59501646e-03</_>
    <_>
      1.73646526e-03 -4.05114086e-04 2.54713371e-03 3.58760334e-03
      9.86225232e-02 -2.28423458e-02 9.86225232e-02 3.62957530e-02
      2.24414803e-02 -3.93139832e-02 4.02702354e-02 4.08122316e-02
      3.33378976e-03 -4.85424278e-03 3.70208244e-03 5.11786155e-03
      2.24796347e-02 2.38057338e-02 2.40533780e-02 2.67861299e-02
      2.65718460e-01 1.14823006e-01 2.74359882e-01 2.17475086e-01
      1.12170391e-01 -2.88662612e-01 2.29284540e-01 3.18394065e-01
      4.48047835e-03 -3.84489931e-02 1.93284135e-02 4.55024056e-02
      2.78623719e-02 4.72456142e-02 2.90639102e-02 4.80849333e-02
      -2.60446779e-02 3.27607393e-01 2.49899566e-01 3.34388107e-01
      -2.18752041e-01 -8.64037126e-02 2.94360697e-01 1.82887644e-01
      8.73299502e-03 -5.39042763e-02 2.32764464e-02 5.39042763e-02
      9.00908839e-03 8.90951976e-03 9.00908839e-03 8.92775599e-03
      -2.09952220e-02 5.57492189e-02 3.79023030e-02 5.60783260e-02
      -1.21925049e-01 2.04572491e-02 1.21925049e-01 4.21212837e-02
      -1.36060233e-04 -6.55302545e-03 2.53708544e-03 6.77821133e-03</_>
    <_>
      0. 0. 0. 0. -1.14515700e-04 -8.69744807e-04 1.81525550e-03
      1.60095980e-03 -4.46040090e-03 -8.39269999e-03 7.58502819e-03
      9.12832003e-03 1.07652193e-03 -3.21103167e-03 1.24118209e-03
      3.27384961e-03 7.07980525e-03 -4.97748852e-02 8.81259423e-03
      4.97748852e-02 7.27119744e-02 -2.09219500e-01 9.49626490e-02
      2.14189291e-01 -3.86129647e-01 -1.50269508e-01 4.06643569e-01
      2.90706187e-01 1.31752482e-02 -3.75418626e-02 2.08489187e-02
      4.05461937e-02 7.75508257e-03 2.89756749e-02 2.27554683e-02
      4.64875363e-02 2.66348243e-01 8.46207961e-02 3.31781536e-01
      2.19766945e-01 -1.70502871e-01 2.65047908e-01 2.11274341e-01
      2.67145157e-01 1.79465879e-02 6.74037486e-02 2.14540213e-02
      6.76258355e-02 -9.80366531e-05 4.17518022e-04 2.53290840e-04
      4.89071012e-04 2.28308933e-03 8.32116976e-03 5.88426087e-03
      8.32116976e-03 -8.97216843e-04 -1.00038364e-03 4.18784469e-03
      3.68560245e-03 -1.88540129e-04 5.99036048e-06 1.97467409e-04
      2.57505249e-04</_>
    <_>
      -1.01391925e-02 1.99045753e-03 1.01558929e-02 2.32691108e-03
      -4.76112142e-02 8.28601420e-03 4.87598032e-02 8.82647745e-03
      -2.74852710e-03 4.05281316e-03 6.08511502e-03 4.05281316e-03
      9.87312014e-05 1.20616343e-03 3.27699439e-04 1.20979664e-03
      -6.11607060e-02 2.10021809e-03 6.27832040e-02 5.29118953e-03
      -3.45445365e-01 5.61193600e-02 3.47938240e-01 7.12112486e-02
      2.51128197e-01 3.58229309e-01 2.56142765e-01 3.61465186e-01
      9.35556251e-04 4.65958267e-02 1.27074262e-02 5.12615629e-02
      -6.33847192e-02 4.17243078e-04 6.53125942e-02 8.63777753e-03
      -2.35038996e-01 1.45998932e-02 2.35038996e-01 5.40338084e-02
      3.04815143e-01 -9.43525583e-02 3.23146522e-01 1.10281453e-01
      -1.74806290e-03 1.42868981e-03 1.51477540e-02 1.47574237e-02
      -9.22139268e-03 -5.40048757e-04 9.27242078e-03 1.19641470e-03
      -3.08140982e-02 1.07314042e-03 3.08140982e-02 4.17205645e-03
      3.43016572e-02 1.11305928e-02 3.60997431e-02 1.97924711e-02
      3.58746969e-03 3.21362750e-03 3.67559702e-03 3.27846361e-03</_>
    <_>
      9.19255079e-04 2.52537802e-03 1.16334937e-03 2.52537802e-03
      4.61470634e-02 7.95962568e-03 4.81740870e-02 1.61252189e-02
      3.35283740e-03 -2.59331893e-02 1.03669651e-02 2.59331893e-02
      1.43067853e-03 -4.15292056e-03 1.45898876e-03 4.15292056e-03
      1.42756896e-02 2.53447946e-02 1.42756896e-02 2.53447946e-02
      1.33052608e-02 1.80665478e-01 1.37837738e-01 1.84768334e-01
      -9.53797176e-02 -1.80762574e-01 1.20068111e-01 1.83699012e-01
      1.32000530e-02 -2.84662433e-02 1.32919969e-02 2.84662433e-02
      2.51137838e-02 4.00550775e-02 2.51137838e-02 4.00550775e-02
      -1.31974638e-01 2.19567373e-01 2.03486755e-01 2.19905213e-01
      -5.34649789e-01 -8.16089883e-02 5.49834251e-01 1.63686216e-01
      1.58837829e-02 -4.31579463e-02 1.61394235e-02 4.31579463e-02
      8.75802769e-04 4.93102707e-04 8.75802769e-04 6.10402029e-04
      -3.20365489e-03 5.45982213e-04 4.33111470e-03 1.15005742e-03
      -1.17999740e-01 1.36898886e-02 1.18509091e-01 1.55785782e-02
      1.59223346e-04 -2.94092257e-04 4.71086270e-04 1.40993576e-03</_>
    <_>
      2.06935825e-03 2.66179559e-04 2.13649450e-03 1.79843674e-03
      -4.06540371e-02 2.61173360e-02 4.22716439e-02 2.61173360e-02
      -6.07277527e-02 2.79140286e-02 6.13685995e-02 3.51270549e-02
      -1.39946758e-04 1.17298332e-03 1.02350989e-03 4.94828355e-03
      2.33729891e-02 -5.58207668e-02 2.44247019e-02 5.69290742e-02
      1.17612764e-01 -2.60942638e-01 3.39484185e-01 2.89059252e-01
      -3.66687357e-01 2.05910876e-01 3.70724171e-01 2.28250191e-01
      -5.69504220e-04 3.82383838e-02 6.75688079e-03 4.07224521e-02
      1.69002346e-03 1.86068024e-02 7.23695103e-03 1.86371747e-02
      3.46535265e-01 -4.59594876e-02 3.48177254e-01 1.34955510e-01
      -1.32692456e-01 1.04604401e-01 1.36012018e-01 1.13237254e-01
      -4.36433684e-03 1.65823344e-02 5.16050309e-03 1.65823344e-02
      1.09966859e-04 2.58739642e-03 9.31374845e-04 2.60271761e-03
      3.97574753e-02 2.20348556e-02 4.20513786e-02 2.20348556e-02
      -8.10978375e-03 1.57140661e-02 1.00307679e-02 1.68248862e-02
      -1.16444798e-03 2.31898390e-03 1.22044049e-03 2.73912563e-03</_>
    <_>
      4.28646217e-07 3.74292838e-03 9.36537865e-04 3.83630488e-03
      1.30709098e-03 3.15353200e-02 1.24897491e-02 3.31602506e-02
      3.61634861e-03 3.27236205e-02 9.24424175e-03 3.30162048e-02
      -8.13252176e-04 5.03417850e-03 1.50839263e-03 5.04043838e-03
      5.63377934e-03 4.31352593e-02 8.45580455e-03 4.31352593e-02
      -2.96168309e-02 2.44877890e-01 1.22175843e-01 2.44877890e-01
      -8.21496453e-03 2.20022455e-01 4.60959859e-02 2.20022455e-01
      -4.69333818e-03 2.82000359e-02 7.34196464e-03 2.82000359e-02
      -2.18059588e-03 4.51583229e-03 9.69067682e-03 1.31294923e-02
      -3.00717056e-01 -3.58898342e-01 3.77556443e-01 3.92672688e-01
      2.87565142e-01 -1.22207493e-01 3.06578845e-01 1.74808770e-01
      -3.59529257e-03 -4.02423320e-03 5.38756000e-03 8.45655240e-03
      -7.54801324e-03 -1.09454161e-02 7.82042183e-03 1.12791248e-02
      2.11981274e-02 6.06210856e-03 8.76515433e-02 6.88729137e-02
      2.72219405e-02 1.31209632e-02 4.26287204e-02 2.11055521e-02
      -4.86136554e-03 -6.68261200e-03 4.88171214e-03 6.69122022e-03</_>
    <_>
      6.88971952e-03 -5.09019895e-03 6.88971952e-03 5.09492913e-03
      8.80416948e-03 -1.41663915e-02 1.76205114e-02 1.54441064e-02
      -1.95549782e-02 -7.31752021e-03 2.10745297e-02 8.45104270e-03
      -1.30199958e-02 -5.62519999e-03 1.30199958e-02 5.62519999e-03
      5.47067225e-02 -4.01440486e-02 5.47067225e-02 4.02034111e-02
      2.35436901e-01 -1.87403962e-01 2.36605555e-01 1.90778762e-01
      -2.30361879e-01 -6.28995970e-02 2.42527276e-01 8.99230614e-02
      -1.16558276e-01 -3.99903469e-02 1.16558276e-01 3.99903469e-02
      3.59700285e-02 -1.45251455e-04 3.69918793e-02 2.01371927e-02
      4.03213888e-01 1.43597916e-01 4.03213888e-01 2.64948875e-01
      -1.94350421e-01 1.72329068e-01 2.21628249e-01 2.85820842e-01
      -6.40171617e-02 1.04796737e-01 6.68063611e-02 1.09182835e-01
      1.56114288e-02 4.78333468e-03 1.56463441e-02 5.16905077e-03
      2.43288446e-02 1.70364156e-02 2.62728948e-02 1.77371930e-02
      1.24649203e-03 4.15994960e-04 1.96886901e-03 1.99266570e-03
      -2.11955612e-05 6.10355419e-05 1.66603335e-04 3.44549830e-04</_>
    <_>
      4.53557866e-03 -1.87729229e-03 4.53557866e-03 1.91372877e-03
      -5.58946133e-02 2.05441308e-03 5.58946133e-02 1.01832589e-02
      -4.90298234e-02 -6.04824862e-03 5.02423346e-02 8.71051662e-03
      1.70834491e-03 -7.94388412e-04 2.10262672e-03 8.67981580e-04
      3.06122955e-02 -5.96171841e-02 3.06122955e-02 5.96171841e-02
      -1.76139668e-01 -3.14064533e-01 2.24222019e-01 3.42473477e-01
      -3.71233165e-01 4.58894521e-02 3.88016462e-01 1.04660720e-01
      3.76583659e-03 3.22234374e-03 4.26792726e-03 3.44205927e-03
      7.87344389e-03 -3.49001028e-02 1.54201174e-02 3.49878147e-02
      2.75647521e-01 -1.91800937e-01 2.77829587e-01 2.24169657e-01
      -2.33896494e-01 6.81713670e-02 2.38046259e-01 1.08046003e-01
      -8.74518824e-04 1.92218889e-02 6.75937627e-03 2.19927039e-02
      5.34540333e-04 7.74905435e-04 2.71378271e-03 1.42857071e-03
      4.74385284e-02 5.05815726e-04 5.19846939e-02 1.32099176e-02
      1.11696906e-02 3.60542461e-02 3.57711613e-02 3.69461067e-02
      -1.44290109e-03 6.77403761e-03 1.49832014e-03 6.97223796e-03</_>
    <_>
      -3.37143149e-03 -4.43154667e-03 6.87256083e-03 4.43154667e-03
      7.98448026e-02 -1.94485374e-02 7.99147487e-02 2.14150734e-02
      2.17155162e-02 -5.36142550e-02 2.27015838e-02 5.38450293e-02
      -1.31283407e-04 -1.00299940e-02 1.67614350e-03 1.00446772e-02
      -1.94496810e-02 1.53019046e-02 2.85019558e-02 1.82172600e-02
      2.78125256e-01 -2.91896369e-02 2.78125256e-01 2.67321914e-01
      -1.02120377e-01 -3.33628953e-01 1.17130801e-01 3.33628953e-01
      -3.19943903e-03 -7.94398785e-02 8.73099919e-03 7.94398785e-02
      3.31958272e-02 -2.98150200e-02 4.32675704e-02 3.25689167e-02
      1.56533331e-01 2.36861229e-01 2.47271121e-01 2.75059104e-01
      -2.40123317e-01 2.37259582e-01 2.83606887e-01 2.52879709e-01
      -3.20106968e-02 5.27481316e-03 3.41387503e-02 1.35718333e-02
      1.23004150e-02 -2.73966091e-03 1.23032266e-02 2.76719267e-03
      4.13535088e-02 -1.80988051e-02 4.68613133e-02 1.80988051e-02
      -3.84629592e-02 -4.98083979e-03 3.84629592e-02 6.52944297e-03
      -7.58804195e-03 -3.09905998e-04 7.81363249e-03 6.41990337e-04</_>
    <_>
      6.82692323e-03 -2.68897205e-03 6.82692323e-03 3.03558819e-03
      -7.83223435e-02 -1.14312880e-02 7.83223435e-02 1.93020534e-02
      -6.29908517e-02 1.67111903e-02 6.29908517e-02 1.72769539e-02
      -3.23188445e-03 2.83774408e-03 3.77466553e-03 3.10913450e-03
      4.75938320e-02 -2.82522328e-02 4.75938320e-02 2.82522328e-02
      -3.27320635e-01 -1.70423999e-01 3.46512765e-01 1.74689770e-01
      -3.07613403e-01 7.77718797e-02 3.16217571e-01 1.30655944e-01
      -1.64066255e-02 3.60516943e-02 1.64066255e-02 3.60516943e-02
      2.68420093e-02 -1.43435476e-02 3.85913476e-02 1.58792436e-02
      -1.39611378e-01 -3.60132307e-01 2.99898356e-01 3.60132307e-01
      6.69432208e-02 1.49849996e-01 1.53044924e-01 1.63352937e-01
      -2.09208974e-03 3.79110128e-02 1.20037831e-02 3.79110128e-02
      2.05459911e-03 2.70543271e-04 5.35881426e-03 1.58329715e-03
      -1.55253876e-02 -6.27644593e-03 8.26794431e-02 1.37449512e-02
      5.27253859e-02 -1.21416606e-03 5.36716692e-02 1.48372054e-02
      -2.42306487e-04 1.76938833e-03 1.96788297e-03 1.76938833e-03</_>
    <_>
      6.25550095e-03 -1.70751606e-04 6.25550095e-03 2.65193242e-03
      -1.30525464e-02 -8.47341213e-03 2.43540648e-02 1.31146759e-02
      -4.17821072e-02 -1.02320022e-03 4.17821072e-02 7.82227144e-03
      8.46161682e-04 -2.57436489e-03 1.66509452e-03 2.57436489e-03
      1.41436309e-02 -4.50762399e-02 1.78097710e-02 4.51808646e-02
      8.39628205e-02 -2.71242559e-01 1.21612705e-01 2.71242559e-01
      -1.44988433e-01 -7.88106676e-03 1.84383497e-01 1.02708697e-01
      -2.02871580e-02 4.61567426e-03 2.21936554e-02 1.42073268e-02
      7.72112468e-03 -9.49530117e-03 9.73835681e-03 1.25315720e-02
      4.73391414e-01 3.35660763e-02 4.73391414e-01 1.25370592e-01
      -1.57036036e-01 2.55041480e-01 3.26104075e-01 2.73017526e-01
      -3.05737015e-02 1.15238894e-02 3.05737015e-02 2.48673018e-02
      1.83311861e-03 -1.89681980e-03 1.84794085e-03 1.94892066e-03
      7.81995356e-02 -1.12382183e-02 7.81995356e-02 1.32224979e-02
      -1.77208297e-02 -6.62017288e-03 5.67831583e-02 1.00627467e-02
      -7.67837977e-03 -1.23537122e-03 7.67837977e-03 1.24017638e-03</_>
    <_>
      9.59356315e-03 -5.53618232e-03 1.04359826e-02 8.34651850e-03
      6.22785185e-03 -1.05046332e-02 1.54815949e-02 1.39745409e-02
      -4.82173301e-02 -4.64669010e-03 4.82173301e-02 7.82070681e-03
      -3.87309305e-03 1.60956290e-04 3.87309305e-03 3.81806283e-04
      2.25202385e-02 -3.28487381e-02 2.63822190e-02 3.30275893e-02
      3.50794107e-01 -4.58194405e-01 3.67237449e-01 4.58895534e-01
      -2.14665920e-01 -1.56612262e-01 2.21691146e-01 1.56612262e-01
      -2.45457944e-02 -6.87941769e-03 2.45457944e-02 7.96634518e-03
      9.18284804e-03 3.20133418e-02 9.69962310e-03 3.20133418e-02
      1.99093416e-01 1.23161227e-01 1.99093416e-01 1.54466540e-01
      -3.21661420e-02 -2.21535587e-03 1.45841479e-01 1.41685084e-01
      -2.05369554e-02 -2.41687143e-04 2.05594562e-02 1.01768970e-02
      4.96696448e-04 4.19823360e-03 5.54622966e-04 4.19823360e-03
      1.16505921e-02 2.31276657e-02 1.17730759e-02 2.31276657e-02
      8.26987345e-03 2.50481591e-02 1.17546255e-02 2.50481591e-02
      -5.22563467e-03 9.19165462e-03 5.47981169e-03 9.19165462e-03</_>
    <_>
      1.66764090e-04 -4.26921435e-03 4.41808661e-04 4.26921435e-03
      8.82565230e-03 -2.47030742e-02 8.93464871e-03 2.47030742e-02
      -5.56870271e-03 -3.34215313e-02 1.62432510e-02 3.34215313e-02
      -8.30763206e-03 -5.02521312e-03 8.42496287e-03 5.10229589e-03
      2.68948311e-03 -4.50177118e-02 5.07869618e-03 4.50177118e-02
      1.92755327e-01 -1.89505130e-01 1.92755327e-01 1.93261132e-01
      -8.80889744e-02 -1.44297937e-02 9.44726691e-02 1.03736922e-01
      -2.30489355e-02 5.41058555e-03 2.30489355e-02 8.04057345e-03
      1.62036661e-02 9.19542275e-03 1.79136787e-02 1.99065600e-02
      4.42121714e-01 3.46884698e-01 4.42121714e-01 3.49883556e-01
      -1.82197094e-01 2.24479765e-01 1.89709097e-01 2.24479765e-01
      -2.64068283e-02 1.09701185e-02 2.64068283e-02 1.09976102e-02
      8.26236419e-03 7.49255205e-03 9.83667094e-03 8.08364991e-03
      3.77764255e-02 2.86159329e-02 3.80562544e-02 3.03442739e-02
      -4.41495925e-02 8.94569140e-03 4.41495925e-02 1.04572130e-02
      -4.91833035e-03 4.30590269e-04 4.91833035e-03 5.11305523e-04</_>
    <_>
      4.38651023e-03 -8.32095556e-03 4.45849169e-03 8.32095556e-03
      -1.24079520e-02 -2.44867224e-02 1.24079520e-02 2.44867224e-02
      -1.09574096e-02 -2.64479835e-02 1.10564353e-02 2.64479835e-02
      -7.44598918e-04 -4.02745930e-03 7.66551995e-04 4.02745930e-03
      2.77344063e-02 -9.27789789e-03 2.77344063e-02 1.85227785e-02
      -8.58956296e-03 -6.67474046e-02 1.38240963e-01 1.10319406e-01
      -1.72160134e-01 -1.81661159e-01 1.72160134e-01 1.88774973e-01
      -9.59552452e-03 -3.62645760e-02 9.92408395e-03 3.62645760e-02
      2.29525175e-02 7.02301739e-03 2.29525175e-02 7.15345098e-03
      1.83422297e-01 1.80707350e-01 1.94093034e-01 1.80707350e-01
      -3.96816999e-01 4.18260992e-01 4.05572087e-01 4.30661827e-01
      -1.56194139e-02 1.74198803e-02 2.08373927e-02 2.36860495e-02
      4.28918609e-03 3.17230995e-04 4.28918609e-03 5.05003438e-04
      4.62922044e-02 7.70052709e-03 4.62922044e-02 9.21991188e-03
      -1.45269101e-02 1.90316904e-02 2.35840939e-02 2.13312898e-02
      -9.47591383e-03 8.62489082e-03 1.10001285e-02 1.01393629e-02</_>
    <_>
      5.92106208e-03 1.54235284e-03 5.92106208e-03 2.18639337e-03
      5.93912788e-02 2.37909704e-03 6.01390563e-02 7.93310348e-03
      -3.92225310e-02 -3.84570728e-03 3.92800681e-02 2.01905351e-02
      -4.21072496e-03 -3.57367005e-03 7.74238631e-03 3.74637218e-03
      4.06602509e-02 1.05879372e-02 4.06602509e-02 1.30166942e-02
      3.48906189e-01 -4.55907360e-02 3.48906189e-01 7.01181740e-02
      -4.20897216e-01 -9.69343185e-02 4.20897216e-01 1.39896318e-01
      7.96862971e-03 1.05705271e-02 2.99992077e-02 1.40191456e-02
      4.97115217e-02 8.10577185e-05 4.97115217e-02 3.65474890e-03
      2.77775019e-01 -2.65759719e-03 2.77775019e-01 4.28820923e-02
      -2.35927820e-01 1.55711964e-01 2.63511032e-01 1.71434179e-01
      -7.09292246e-03 1.57811660e-02 2.64227781e-02 1.62047595e-02
      6.19356474e-03 1.41901325e-03 6.19356474e-03 1.45536871e-03
      5.34858517e-02 8.98987241e-03 5.34858517e-02 1.06836753e-02
      -2.52867024e-02 2.27503795e-02 4.04294059e-02 2.39210110e-02
      -2.14656023e-03 1.43439590e-03 3.68309882e-03 1.65432051e-03</_>
    <_>
      -8.20937380e-03 7.90118531e-04 8.20937380e-03 1.00351626e-03
      4.52049030e-03 6.91943802e-04 1.84321143e-02 4.57385369e-03
      7.71947801e-02 -2.40335404e-03 7.71947801e-02 3.00843967e-03
      3.77296284e-03 -1.77424029e-03 3.77864530e-03 1.77589816e-03
      -3.67044173e-02 2.65150070e-02 3.67560722e-02 2.72454228e-02
      3.21363658e-02 3.46792847e-01 1.18841946e-01 3.46792847e-01
      3.67386043e-01 1.95822179e-01 3.67386043e-01 1.98823407e-01
      6.40395144e-03 -1.26504879e-02 1.10524856e-02 1.33911539e-02
      -1.25036072e-02 -3.43922377e-02 1.34655293e-02 3.43922377e-02
      6.79428224e-03 -2.46620506e-01 7.54285008e-02 2.49940604e-01
      1.53766200e-01 -3.11823398e-01 1.53766200e-01 3.11823398e-01
      3.78423225e-04 -5.12497872e-02 4.93974099e-03 5.12497872e-02
      -4.38745163e-04 -1.97371421e-03 4.39574011e-04 2.04664306e-03
      3.59489885e-03 -7.02011632e-03 4.04659333e-03 7.16011738e-03
      1.32786855e-02 -7.09253363e-03 1.32786855e-02 7.11315451e-03
      1.20019086e-03 2.04633747e-04 1.20019086e-03 5.27457043e-04</_>
    <_>
      -5.73654287e-03 2.09690793e-03 5.73654287e-03 2.39938824e-03
      -1.14463177e-02 2.16484591e-02 1.84144601e-02 2.16484591e-02
      1.83956847e-02 1.45619689e-02 1.92662366e-02 1.45619689e-02
      2.52826605e-04 2.10143975e-03 6.50255301e-04 2.10143975e-03
      1.92345846e-02 2.86884867e-02 2.96060871e-02 3.25227007e-02
      -3.74524593e-01 1.51782021e-01 3.75567675e-01 1.57845691e-01
      1.90641746e-01 1.36866383e-02 2.03412890e-01 4.67125513e-02
      6.67691790e-03 7.55508617e-03 6.86685601e-03 8.95063579e-03
      2.78063733e-02 -3.98579016e-02 3.39521840e-02 3.98788676e-02
      -3.76156211e-01 -2.58065760e-01 3.76156211e-01 2.58065760e-01
      2.74049431e-01 -3.65546830e-02 2.74049431e-01 7.14135468e-02
      1.04974965e-02 2.79741082e-03 1.04974965e-02 3.81583301e-03
      -1.34233420e-03 -1.63178437e-03 1.34233420e-03 1.65602705e-03
      -2.39652693e-02 -1.57502834e-02 2.58147735e-02 1.57502834e-02
      4.84715030e-02 -3.04348744e-03 4.84715030e-02 4.35666693e-03
      1.74838700e-03 9.94036440e-04 1.74838700e-03 1.02052873e-03</_>
    <_>
      1.85405498e-03 -7.35712179e-04 2.00920901e-03 7.95136497e-04
      8.63325819e-02 -9.74230468e-03 8.63325819e-02 9.74230468e-03
      -4.88108173e-02 -1.98081024e-02 4.88787144e-02 2.00410113e-02
      1.06877531e-03 2.15421140e-04 2.43499014e-03 1.19886803e-03
      6.89173071e-03 -2.12254748e-03 9.32291709e-03 4.81757428e-03
      3.92879516e-01 -2.09805146e-01 3.92879516e-01 2.11346030e-01
      -1.38119787e-01 -1.85476378e-01 1.72995701e-01 2.05600783e-01
      1.12704281e-02 -3.62612098e-03 1.27639575e-02 1.00511834e-02
      6.14034012e-03 -1.66072813e-03 7.03021232e-03 3.09033901e-03
      3.19434613e-01 3.46276630e-03 3.19434613e-01 6.75587803e-02
      7.73703232e-02 2.51422852e-01 3.17376643e-01 2.51422852e-01
      -8.00009910e-03 -2.32907734e-03 1.47836413e-02 1.32950721e-02
      -2.38378212e-04 -8.44278547e-04 4.13292291e-04 8.58818297e-04
      6.72190040e-02 -1.69281149e-03 6.72190040e-02 5.72028197e-03
      1.79461874e-02 1.29840069e-03 6.07363470e-02 1.37181031e-02
      -3.21037928e-03 3.10156727e-03 4.48183203e-03 3.10156727e-03</_>
    <_>
      -5.77682815e-03 -3.12389951e-04 5.77682815e-03 7.52748165e-04
      6.65586144e-02 -1.29603297e-02 6.65586144e-02 1.69525128e-02
      -1.62443947e-02 -2.02825926e-02 1.78129263e-02 2.30315179e-02
      1.30703649e-03 -5.29503566e-04 2.83702463e-03 1.23772223e-03
      -1.67936161e-02 2.39572953e-02 3.14280987e-02 3.11719161e-02
      2.28238910e-01 -2.71362439e-02 2.47502714e-01 2.07110852e-01
      2.03146320e-02 -1.20600156e-01 1.07333474e-01 1.69475690e-01
      2.58253589e-02 -4.29583341e-03 2.58253589e-02 8.42949003e-03
      4.24204767e-02 -1.20905228e-02 5.74164726e-02 2.41314191e-02
      2.71398753e-01 3.94866139e-01 2.93237656e-01 3.94866139e-01
      -3.10130984e-01 1.86892331e-01 3.15776467e-01 2.13627636e-01
      6.50219433e-03 -1.78271513e-02 1.21875014e-02 3.05716302e-02
      2.36406270e-02 -3.79678677e-03 2.36406270e-02 4.24663676e-03
      3.47288102e-02 3.41065638e-02 4.59200628e-02 3.98863927e-02
      -6.60225376e-02 1.68325976e-02 7.07099438e-02 2.12417524e-02
      7.64595869e-04 7.61395274e-03 3.89583688e-03 7.89914466e-03</_>
    <_>
      1.04477732e-02 -4.29113535e-03 1.05702160e-02 4.29113535e-03
      2.73376722e-02 -1.78711209e-02 2.85081398e-02 1.78711209e-02
      -5.38959019e-02 6.94336602e-04 5.38959019e-02 2.86319130e-03
      -1.22966729e-02 -2.28004792e-04 1.22966729e-02 3.84706946e-04
      2.59334370e-02 -1.83892082e-02 2.59334370e-02 1.86722726e-02
      3.55350226e-01 -3.62114877e-01 3.55350226e-01 3.62114877e-01
      -2.19901681e-01 -1.69268072e-01 3.02359819e-01 1.69268072e-01
      -8.23377445e-02 -4.14896850e-03 8.23377445e-02 4.88766888e-03
      9.70876496e-03 5.85830014e-04 9.83316917e-03 2.60858005e-03
      3.11111510e-01 6.79685622e-02 3.11111510e-01 9.20870155e-02
      -4.15248349e-02 1.88705660e-02 1.87101543e-01 6.41739741e-02
      -6.80152401e-02 4.20877151e-02 6.80152401e-02 4.20877151e-02
      3.77776753e-03 1.28054840e-03 3.77776753e-03 1.28212827e-03
      3.51874828e-02 1.38824442e-02 3.51874828e-02 1.41726770e-02
      -3.15612508e-03 -1.40475912e-03 8.22641142e-03 3.86571931e-03
      -3.64677678e-03 1.20623352e-03 3.66735319e-03 1.84756366e-03</_>
    <_>
      -2.97898357e-03 -6.55067561e-04 2.99445959e-03 2.65883887e-03
      -1.22073740e-02 6.95766695e-03 1.32488133e-02 1.46988528e-02
      6.60265908e-02 4.46882099e-03 6.60265908e-02 1.85273141e-02
      1.39153441e-02 -3.88455344e-03 1.47646461e-02 3.88455344e-03
      -4.22578529e-02 6.66564256e-02 4.22578529e-02 6.66564256e-02
      -1.39225304e-01 3.52221280e-01 2.04862475e-01 3.63730013e-01
      1.36472806e-01 9.88911614e-02 3.08458477e-01 1.61017329e-01
      8.09277147e-02 -1.58553403e-02 8.21997449e-02 1.60887148e-02
      -2.78362688e-02 -2.23698970e-02 2.78362688e-02 2.52864603e-02
      -3.26510459e-01 -2.31810972e-01 3.26510459e-01 2.31810972e-01
      2.02614486e-01 -9.73621830e-02 3.08690041e-01 1.18302099e-01
      4.85531390e-02 -9.48975701e-03 4.85531390e-02 9.48975701e-03
      -1.03434557e-02 1.04538058e-05 1.03434557e-02 2.10494851e-03
      -3.42159532e-02 -1.65855475e-02 3.58454287e-02 1.80179067e-02
      4.94221970e-02 5.78305498e-03 4.94221970e-02 6.43035723e-03
      5.92197664e-03 -4.44671314e-04 5.92197664e-03 1.51402806e-03</_>
    <_>
      4.27630177e-04 1.75935193e-03 3.14417412e-03 3.17643024e-03
      -3.67351691e-03 6.22982020e-03 4.17155512e-02 1.20644271e-02
      5.41700497e-02 -7.23927934e-03 5.42572252e-02 8.89170915e-03
      -6.24206616e-04 -1.89987535e-04 1.12134614e-03 7.50051171e-04
      -4.66477964e-03 3.44134332e-03 1.13320816e-02 1.19027589e-02
      -1.57565549e-01 6.12181937e-03 2.78416157e-01 4.28056158e-02
      4.26534802e-01 -3.23432609e-02 4.37926441e-01 6.37785792e-02
      1.26102846e-03 -3.26810428e-03 6.07119594e-03 6.20963378e-03
      -8.43048841e-03 -1.48893544e-03 1.07435724e-02 8.79288744e-03
      -2.20778793e-01 2.27335356e-02 2.45250702e-01 5.71527630e-02
      4.32168633e-01 -7.37891197e-02 4.32168633e-01 8.13804045e-02
      9.86127998e-04 -3.62848281e-03 3.97825101e-03 4.85558296e-03
      -1.11102476e-03 -4.01787373e-04 1.75693794e-03 1.17366773e-03
      -3.39163281e-02 1.18781533e-03 3.77743766e-02 4.33994923e-03
      6.05254956e-02 -5.07328566e-03 6.05254956e-02 6.31731004e-03
      1.88477425e-04 -1.86533536e-04 7.31127046e-04 7.48195627e-04</_>
    <_>
      9.07658413e-03 -6.63992856e-03 9.11651831e-03 6.63992856e-03
      8.70301872e-02 -2.97058709e-02 8.70301872e-02 3.17380056e-02
      7.14733824e-02 -5.36109805e-02 7.14733824e-02 5.52793927e-02
      1.16832955e-02 -1.14471233e-02 1.16845276e-02 1.14483554e-02
      5.08910269e-02 7.02833906e-02 5.08910269e-02 7.03534335e-02
      3.38286847e-01 1.21477321e-01 3.42268795e-01 2.27030024e-01
      1.98573828e-01 -2.44784623e-01 2.24954739e-01 2.83062369e-01
      2.90909074e-02 -8.80471095e-02 3.13280188e-02 8.80471095e-02
      1.15113445e-02 1.18407845e-01 2.11941525e-02 1.18407845e-01
      -1.28210172e-01 2.50318617e-01 2.10095584e-01 3.07735205e-01
      -1.46114677e-01 -1.49839193e-01 1.74465209e-01 2.13016704e-01
      -1.66473240e-02 -6.62950128e-02 1.83956902e-02 6.62950128e-02
      -4.82526841e-03 1.08770225e-02 5.26914652e-03 1.12685952e-02
      -9.20610353e-02 2.81137750e-02 9.20610353e-02 3.18318494e-02
      -6.93010688e-02 -2.15880442e-02 6.93010688e-02 2.72202976e-02
      -7.41902459e-03 -7.22764293e-03 7.41902459e-03 7.23351305e-03</_>
    <_>
      -1.51937664e-03 3.01440828e-03 1.51937664e-03 3.33212456e-03
      1.26738563e-01 -9.65909858e-04 1.26753658e-01 1.98174939e-02
      2.30478849e-02 -3.88977118e-02 3.32884379e-02 3.92752327e-02
      -5.22029772e-03 -6.23568147e-03 5.22029772e-03 6.23568147e-03
      -1.53002888e-02 4.61118110e-02 1.53002888e-02 4.61118110e-02
      3.45001966e-01 1.64472625e-01 3.46791059e-01 1.98558748e-01
      6.53286725e-02 -2.96951860e-01 1.64340228e-01 2.96951860e-01
      -3.33095528e-02 -4.63956967e-02 3.33095528e-02 4.63956967e-02
      -1.49154840e-02 4.60258015e-02 1.54419430e-02 4.60258015e-02
      8.36521573e-03 2.41062820e-01 8.14611390e-02 2.41062820e-01
      -2.92214096e-01 -1.87547252e-01 3.51855725e-01 2.11458251e-01
      -1.87525991e-02 -3.18613797e-02 1.88964326e-02 3.42636667e-02
      -1.51264598e-03 5.00028487e-03 1.73311040e-03 5.00028487e-03
      -1.83839425e-02 3.96790691e-02 2.35504881e-02 3.96790691e-02
      -7.88569227e-02 2.96625290e-02 7.90845826e-02 2.96625290e-02
      -7.18383351e-04 4.54173423e-03 1.24908646e-03 4.54173423e-03</_>
    <_>
      6.45527907e-05 -5.39763598e-03 7.95759086e-04 5.39763598e-03
      8.62379745e-02 -3.93741205e-02 8.62379745e-02 3.93741205e-02
      1.46275777e-02 -3.38228047e-02 2.18168963e-02 3.38228047e-02
      2.05694046e-03 -4.37989645e-03 2.11138208e-03 4.37989645e-03
      2.02372111e-02 2.50843316e-02 2.02721637e-02 2.81503592e-02
      2.91550577e-01 1.72783747e-01 3.26573700e-01 1.92950428e-01
      4.41977382e-02 -2.80447185e-01 1.41965225e-01 2.80447185e-01
      1.92165133e-02 -4.73675467e-02 1.92165133e-02 4.73675467e-02
      3.21988463e-02 4.59032208e-02 3.21988463e-02 4.59032208e-02
      -7.08473027e-02 2.84726024e-01 2.11829722e-01 2.84726024e-01
      -2.97322392e-01 -1.81341469e-01 3.33898067e-01 2.07872942e-01
      1.92335024e-02 -4.77626286e-02 1.98229868e-02 4.77626286e-02
      4.90684668e-03 6.55841455e-03 4.90684668e-03 6.55841455e-03
      -2.09449772e-02 3.22967507e-02 3.84018160e-02 3.22967507e-02
      -1.20315053e-01 5.15987980e-04 1.20380588e-01 2.33491063e-02
      2.21906439e-03 -4.60342830e-03 2.21906439e-03 4.94864164e-03</_>
    <_>
      8.43465980e-03 4.78797453e-03 8.43465980e-03 4.96299472e-03
      8.56490806e-02 2.03876626e-02 8.56490806e-02 2.37177406e-02
      9.98735428e-02 -7.39034545e-03 9.98735428e-02 2.48450600e-02
      5.28453337e-03 -6.35791058e-03 6.16559479e-03 7.61250779e-03
      3.62024717e-02 5.51106967e-02 3.63688953e-02 5.51106967e-02
      3.20991337e-01 7.73524716e-02 3.28839064e-01 1.74261332e-01
      2.62180120e-01 -2.98031837e-01 2.70758718e-01 3.02570254e-01
      6.27207861e-04 -1.10270396e-01 1.60209723e-02 1.10270396e-01
      -1.96444970e-02 7.29556829e-02 2.27554869e-02 7.29556829e-02
      3.48170847e-02 1.99174240e-01 1.51897222e-01 2.19875351e-01
      -2.16111228e-01 -1.91649690e-01 2.45092764e-01 2.25908607e-01
      -4.34519090e-02 -8.79988298e-02 4.40722890e-02 8.79988298e-02
      -9.21730325e-03 1.13812685e-02 9.21730325e-03 1.14391595e-02
      -4.18832973e-02 4.26897220e-02 4.18832973e-02 4.26897220e-02
      -8.37570801e-02 1.39782308e-02 8.37570801e-02 2.13003773e-02
      -8.89263675e-03 -6.88956468e-04 8.93498864e-03 4.54856129e-03</_>
    <_>
      3.05052090e-04 -9.19831684e-04 1.16671878e-03 1.14465936e-03
      6.20218692e-03 1.40720874e-03 8.19167867e-03 5.64672891e-03
      -4.23072325e-03 1.09595177e-03 6.67592231e-03 4.75752680e-03
      -3.35855363e-03 -2.21056538e-03 3.35855363e-03 2.25967332e-03
      6.82350062e-03 -2.53386293e-02 2.29651425e-02 4.34706472e-02
      5.16345128e-02 -3.65569592e-01 7.38946125e-02 3.65569592e-01
      -9.44717824e-02 -3.39032829e-01 1.01817615e-01 3.47990543e-01
      -3.14996834e-03 1.52319320e-03 2.91072074e-02 4.61579040e-02
      -1.18583729e-02 2.75684427e-02 1.57688204e-02 3.27386744e-02
      2.70831510e-02 3.13152105e-01 5.06933630e-02 3.22598815e-01
      3.37596089e-02 3.50471526e-01 5.83349355e-02 3.55106205e-01
      5.74625703e-03 2.26522405e-02 1.05645079e-02 2.38860734e-02
      4.76329168e-03 -4.75629559e-03 4.90528345e-03 4.93575586e-03
      1.15999868e-02 -5.39058447e-03 1.15999868e-02 5.90838492e-03
      4.09912737e-03 -1.75822922e-03 7.72027252e-03 5.00287395e-03
      -2.00612121e-03 -1.34855974e-04 2.00612121e-03 1.19266752e-03</_>
    <_>
      -2.37087440e-03 -1.18377525e-02 2.37087440e-03 1.18377525e-02
      -2.83840788e-03 -7.62742534e-02 1.13130230e-02 7.62742534e-02
      -1.22098764e-02 -6.64199963e-02 1.60649195e-02 6.64199963e-02
      1.20709813e-03 -9.14205238e-03 2.39425316e-03 9.14205238e-03
      -8.36184807e-03 -6.22220188e-02 9.29860864e-03 6.22220188e-02
      1.64938316e-01 -3.06173414e-01 1.93402529e-01 3.11286598e-01
      -1.19863972e-01 -1.49358168e-01 2.19687402e-01 2.20510378e-01
      3.72255147e-02 -1.79649815e-02 4.37632948e-02 2.16475669e-02
      4.13543871e-03 -5.23353415e-03 9.49903112e-03 6.33987412e-03
      3.89929205e-01 8.38746876e-02 3.92876416e-01 1.06556065e-01
      -1.76675975e-01 1.71456143e-01 3.76814753e-01 1.72476754e-01
      6.35447279e-02 1.22472439e-02 7.75463954e-02 1.22472439e-02
      5.07917604e-04 6.34404540e-04 8.53587931e-04 9.98766627e-04
      5.97890615e-02 5.18422294e-03 5.97890615e-02 1.01964921e-02
      -1.39761753e-02 -7.45468889e-04 4.69032004e-02 1.36800716e-02
      8.45771283e-03 2.89044139e-04 1.12540657e-02 1.35655084e-03</_>
    <_>
      6.40434155e-04 -1.89823797e-03 7.04616401e-03 6.71223970e-03
      1.41039127e-02 -1.67019106e-02 1.64973941e-02 1.81643479e-02 0. 0.
      0. 0. 0. 0. 0. 0. -1.07724871e-02 1.74970236e-02 1.69373807e-02
      2.51343586e-02 1.11310259e-01 1.17232226e-01 5.31558692e-01
      5.55362105e-01 6.24357797e-02 -8.27226564e-02 6.83545992e-02
      8.27226564e-02 5.32643404e-04 -3.59556288e-03 2.81055761e-03
      3.59556288e-03 0. 0. 0. 0. -7.29044229e-02 6.28862604e-02
      7.29044229e-02 6.88050762e-02 -7.43660256e-02 -6.67788088e-02
      4.30321872e-01 3.74522865e-01 2.08328161e-02 -1.22709982e-02
      2.38266513e-02 1.79559290e-02 0. 0. 0. 0. -3.33653996e-03
      7.46454520e-04 3.33653996e-03 7.46454520e-04 -1.40890200e-02
      2.04940978e-02 2.20344141e-02 2.44405568e-02 5.30030171e-04
      -5.33401500e-04 7.68306572e-03 7.91759137e-03</_>
    <_>
      1.10800043e-02 -1.19721610e-02 1.22371102e-02 1.32105350e-02
      2.41303872e-02 -2.99433321e-02 3.24150063e-02 3.00762039e-02
      -8.34938660e-02 -1.08908629e-02 8.34938660e-02 1.22026186e-02
      -6.25256263e-03 -1.28784252e-03 6.43191440e-03 1.96845829e-03
      3.51433754e-02 1.13690691e-02 9.98631567e-02 6.25410303e-02
      1.78146183e-01 -2.47799709e-01 2.99217522e-01 2.86595702e-01
      -3.36586952e-01 -2.00005472e-01 3.77712280e-01 2.16837972e-01
      -5.75684495e-02 2.62619392e-03 5.75684495e-02 1.15045272e-02
      3.29299830e-02 -2.38564070e-02 3.68144698e-02 2.43869312e-02
      1.70375809e-01 7.69025087e-02 2.86704361e-01 1.96157828e-01
      -2.70666122e-01 7.89083987e-02 2.70666122e-01 1.56697303e-01
      -5.62047549e-02 4.35665762e-03 5.62047549e-02 1.06722796e-02
      5.67317056e-03 1.49937463e-03 5.94107900e-03 1.56934257e-03
      3.49606089e-02 8.13873298e-03 4.66832146e-02 1.91534050e-02
      -4.47888076e-02 2.62782210e-03 5.13448156e-02 1.23508414e-02
      -9.52720921e-03 2.22807704e-03 9.52720921e-03 2.62592710e-03</_>
    <_>
      1.72674004e-03 -3.32772586e-04 1.74806279e-03 1.49622909e-03
      -4.08294126e-02 2.11290009e-02 4.27515917e-02 2.14557275e-02
      -5.67045845e-02 2.22169627e-02 5.72006553e-02 3.39334197e-02
      -1.00151381e-04 4.28485218e-04 7.76164758e-04 4.68243519e-03
      2.38028690e-02 -5.13599403e-02 2.57456042e-02 5.70582710e-02
      1.45243019e-01 -2.79511154e-01 3.18225086e-01 3.08098942e-01
      -3.67466480e-01 1.96368620e-01 3.85776818e-01 2.20884919e-01
      -1.60562934e-03 3.65728214e-02 7.46307941e-03 3.69507186e-02
      -1.42333366e-03 1.92382652e-02 6.16697548e-03 2.05011442e-02
      3.39019030e-01 -9.95790213e-03 3.39450806e-01 8.57262909e-02
      -1.37286872e-01 1.08233459e-01 1.45004481e-01 1.25990644e-01
      -2.09955219e-03 1.71883609e-02 3.91458767e-03 1.71883609e-02
      7.06597784e-05 2.29392434e-03 6.74881798e-04 2.30083033e-03
      3.81369852e-02 1.82310604e-02 4.04911712e-02 1.82310604e-02
      -7.96431024e-03 1.50069622e-02 1.02057764e-02 1.57623589e-02
      -3.45085718e-04 1.85129035e-03 6.18113670e-04 1.86181127e-03</_>
    <_>
      -7.40599469e-04 2.43373812e-04 1.11577543e-03 6.35750592e-04
      -6.04319759e-02 -6.41992840e-04 6.04319759e-02 6.81651384e-03
      5.36840409e-02 1.57174133e-02 5.37806079e-02 1.60894487e-02
      3.36762372e-04 5.17921522e-04 6.08457602e-04 1.36960566e-03
      -4.97982255e-04 9.76856449e-04 5.52633032e-03 7.61128636e-03
      -4.08470154e-01 1.10592641e-01 4.10113782e-01 1.23011649e-01
      3.72777611e-01 -4.17870507e-02 3.73579741e-01 6.07641377e-02
      -2.05006218e-03 3.06867703e-04 4.33585700e-03 5.59375761e-03
      8.27100966e-03 -4.53752838e-03 9.23976675e-03 7.54556851e-03
      -2.24538982e-01 8.32949504e-02 2.33302191e-01 1.05262466e-01
      -9.81219579e-03 -2.09449027e-02 3.63169819e-01 2.80741185e-01
      6.76561892e-03 -3.50513197e-02 1.01923654e-02 3.54571231e-02
      7.75832334e-04 -1.95558043e-03 1.01050420e-03 2.02727318e-03
      -3.58455558e-03 -1.39297498e-02 7.50506343e-03 1.39297498e-02
      -2.31760144e-02 1.45581560e-02 2.52497159e-02 3.09967417e-02
      -2.57975422e-03 3.88288265e-03 2.71145022e-03 5.81092760e-03</_>
    <_>
      1.52676203e-03 -2.61577917e-03 2.59258179e-03 2.64228880e-03
      6.94256425e-02 -2.13496126e-02 6.98057711e-02 2.59432383e-02
      2.44258437e-03 -2.90879067e-02 1.48273641e-02 3.19619663e-02
      2.22081016e-03 -7.38424622e-03 3.15546850e-03 7.51793524e-03
      2.20414195e-02 1.80837754e-02 2.36560851e-02 2.09691916e-02
      2.17148736e-01 1.23280056e-01 2.57678598e-01 1.82144389e-01
      -8.26606676e-02 -2.44512364e-01 1.87429041e-01 2.61066556e-01
      1.29834209e-02 -3.09727639e-02 1.60854235e-02 3.19249593e-02
      2.69704219e-02 3.56147178e-02 2.86059156e-02 3.57198156e-02
      3.77449505e-02 2.66503543e-01 3.10757369e-01 2.94686526e-01
      -3.74903053e-01 4.62374873e-02 4.10934150e-01 2.24152744e-01
      5.02965273e-03 -4.29005064e-02 1.32839996e-02 4.89286855e-02
      6.48308406e-03 5.03784604e-03 6.48645731e-03 5.12657873e-03
      -5.22889197e-03 2.72617321e-02 3.45574282e-02 2.86602266e-02
      -1.02722496e-01 1.32453982e-02 1.02722496e-01 2.21049469e-02
      1.14580360e-03 7.89958751e-04 2.54114810e-03 1.46310637e-03</_>
    <_>
      6.22342853e-03 -8.24837666e-03 6.24197070e-03 8.24837666e-03
      5.52760251e-02 -3.58907767e-02 5.52760251e-02 3.58907767e-02
      5.48917949e-02 -2.24528424e-02 5.48917949e-02 2.24528424e-02
      5.58254961e-03 -4.38164966e-03 5.67046413e-03 4.39863233e-03
      3.83858420e-02 6.06220104e-02 3.83858420e-02 6.74539208e-02
      3.72050941e-01 2.11098075e-01 3.72050941e-01 2.68133044e-01
      1.33374721e-01 -1.66179612e-01 1.65978208e-01 1.83402941e-01
      2.31897868e-02 -6.66156262e-02 2.68755350e-02 6.66156262e-02
      2.74092350e-02 1.09920673e-01 2.85385605e-02 1.09920673e-01
      -1.86399579e-01 2.74295509e-01 2.75092810e-01 3.04749221e-01
      -1.66459873e-01 -1.63998246e-01 1.84459090e-01 1.89560145e-01
      -2.12564766e-02 -6.35761097e-02 2.23672707e-02 6.35761097e-02
      -1.00861047e-03 2.32224446e-03 1.43469207e-03 3.42533458e-03
      -9.47850272e-02 -2.03901399e-02 9.47850272e-02 2.25683525e-02
      -4.78707440e-02 -2.56487317e-02 4.78707440e-02 2.57647708e-02
      -5.35406452e-03 -3.59068369e-03 5.35406452e-03 3.84905236e-03</_>
    <_>
      8.16359185e-04 -4.02097357e-03 1.06969383e-03 4.15543932e-03
      9.87612829e-02 -1.34601789e-02 9.88289863e-02 2.00087894e-02
      1.19413212e-02 -2.34501008e-02 1.77891403e-02 2.34696511e-02
      1.66424154e-03 -3.45968595e-03 1.70722173e-03 3.48836207e-03
      1.52436029e-02 2.84141786e-02 1.52436029e-02 2.84141786e-02
      3.72417510e-01 8.15037936e-02 3.72417510e-01 1.45308852e-01
      1.41971977e-02 -2.63643265e-01 1.08369246e-01 2.63643265e-01
      1.41847953e-02 -4.43044081e-02 1.53598255e-02 4.43044081e-02
      2.94578467e-02 4.25669476e-02 2.94578467e-02 4.27994654e-02
      4.16087657e-02 2.45209351e-01 1.51090279e-01 2.45209351e-01
      -3.06742728e-01 -2.38405004e-01 3.53338659e-01 2.40092516e-01
      2.13517006e-02 -4.67725918e-02 2.13517006e-02 4.67725918e-02
      5.52871777e-03 6.98877079e-03 5.52871777e-03 7.01443525e-03
      -4.35564704e-02 3.25998925e-02 4.83377315e-02 3.28374766e-02
      -9.61378738e-02 -1.91843472e-02 1.00945480e-01 2.02652588e-02
      2.26830458e-03 -5.69736771e-03 2.26830458e-03 5.69861103e-03</_>
    <_>
      -4.44659352e-04 9.60007193e-04 1.77956279e-03 2.67037633e-03
      -7.08655268e-02 2.35872413e-03 7.08655268e-02 1.11667598e-02
      -4.21710778e-03 3.56142856e-02 8.95812735e-02 3.68083492e-02
      1.06689502e-02 6.90168818e-04 1.06689502e-02 2.41372571e-03
      3.03555885e-03 -2.84331124e-02 1.37379570e-02 3.21566276e-02
      -4.51022804e-01 -1.50149062e-01 4.52987254e-01 2.33051628e-01
      2.11838529e-01 1.50675178e-01 2.93152571e-01 1.69770509e-01
      3.51747237e-02 -2.97748658e-04 3.51747237e-02 3.04538682e-02
      -4.86475043e-03 -4.07326445e-02 1.65581908e-02 4.07326445e-02
      -7.49035999e-02 -1.49553537e-01 1.38377830e-01 1.92046925e-01
      2.59058625e-01 7.51657039e-02 3.11707735e-01 2.07082868e-01
      3.09140552e-02 1.12713240e-02 3.13974507e-02 1.79981235e-02
      1.27177162e-04 -3.01858969e-03 1.31448614e-03 3.63318971e-03
      2.58827414e-02 4.87427972e-03 2.65353750e-02 1.18007408e-02
      1.97139978e-02 6.27716444e-03 2.11699568e-02 1.75845996e-02
      5.85713703e-03 -2.54944758e-03 5.85713703e-03 3.54178832e-03</_>
    <_>
      3.70502449e-03 -6.14398858e-03 3.80891073e-03 6.17281115e-03
      2.64035985e-02 -3.02634556e-02 3.42244394e-02 3.07462960e-02
      3.68004069e-02 -1.34111438e-02 3.68004069e-02 2.13740449e-02
      4.02228022e-03 -4.13394161e-03 5.02587995e-03 4.13394161e-03
      2.19785403e-02 1.74669102e-02 2.83864457e-02 3.57121229e-02
      2.49895662e-01 8.22677091e-02 2.59797394e-01 2.68318027e-01
      1.63062170e-01 -1.36603534e-01 1.92246929e-01 2.40002692e-01
      -1.24900136e-02 -5.10663912e-02 2.07058582e-02 5.10663912e-02
      3.54176797e-02 8.90880674e-02 3.56480218e-02 8.91552642e-02
      2.56816577e-02 4.40373600e-01 1.78990290e-01 4.56301510e-01
      -2.76554555e-01 4.47424129e-02 2.78648376e-01 1.19355924e-01
      -2.57627387e-02 -2.22697873e-02 2.64937431e-02 2.66400035e-02
      6.12243265e-03 3.68121953e-04 6.33576512e-03 4.04283218e-03
      -3.93156931e-02 -2.61889282e-03 4.07588668e-02 2.00026818e-02
      -5.11814468e-02 -8.52735993e-03 5.11814468e-02 1.77234784e-02
      -3.79363890e-03 7.15949282e-04 3.87691869e-03 1.71769771e-03</_>
    <_>
      1.54654752e-03 4.62215685e-04 2.45388015e-03 3.72280669e-03
      7.53681213e-02 -2.63279341e-02 7.53681213e-02 2.67078206e-02
      7.76744029e-03 -3.49239483e-02 1.69009361e-02 3.49239483e-02
      2.45689414e-03 -8.09867773e-03 2.60512740e-03 8.09867773e-03
      1.64172482e-02 2.20944565e-02 1.80283897e-02 2.85034291e-02
      1.70070186e-01 8.78328234e-02 2.40433693e-01 2.20494106e-01
      -9.08719096e-03 -2.25113288e-01 1.64617538e-01 2.45992422e-01
      1.25839869e-02 -4.57937866e-02 1.37875611e-02 4.57937866e-02
      3.91011201e-02 3.69086601e-02 4.00187820e-02 3.87133397e-02
      -8.26281458e-02 2.75970608e-01 2.44939283e-01 2.81941801e-01
      -3.88444930e-01 -1.29317373e-01 4.12204564e-01 2.87484497e-01
      2.65674721e-02 -4.81691435e-02 2.79045012e-02 5.34766801e-02
      8.31451826e-03 3.97069938e-03 8.31451826e-03 3.97069938e-03
      -4.64936579e-03 4.38962616e-02 3.18337940e-02 4.67680469e-02
      -1.28497615e-01 3.39518264e-02 1.28497615e-01 3.99946608e-02
      4.18297190e-04 -1.03206839e-03 1.78451068e-03 2.85025942e-03</_>
    <_>
      2.50975555e-03 1.03808090e-03 2.52426532e-03 1.22784253e-03
      6.41973540e-02 7.50441477e-03 6.41973540e-02 8.56426172e-03
      1.71811096e-02 -2.16257456e-03 2.01962031e-02 1.63107123e-02
      -6.14560395e-03 -5.90881740e-04 6.14560395e-03 2.97937659e-03
      1.77843645e-02 1.38733396e-02 1.92863904e-02 2.29222905e-02
      2.54106313e-01 -1.18373089e-01 3.21085453e-01 1.45183623e-01
      -9.26197097e-02 -4.88242000e-01 1.81163013e-01 4.88242000e-01
      -2.66282633e-02 -8.69953632e-02 2.88095213e-02 8.70948359e-02
      -4.18340741e-03 4.77857664e-02 1.22587886e-02 4.77857664e-02
      -1.23320132e-01 1.11548640e-01 1.47454485e-01 1.57678157e-01
      -2.61507422e-01 -3.79424170e-02 2.61507422e-01 1.64364025e-01
      -1.46668106e-02 -9.67783201e-03 2.33038887e-02 2.06599813e-02
      -5.27614960e-03 3.70251038e-03 5.29355695e-03 3.70251038e-03
      -2.65274197e-02 1.35986134e-02 2.86493078e-02 1.42087573e-02
      -3.27287726e-02 2.94582862e-02 3.27287726e-02 3.06504332e-02
      -3.33635160e-03 6.07421342e-03 3.68944509e-03 6.07421342e-03</_>
    <_>
      -9.18655004e-03 1.76331378e-03 9.18655004e-03 2.06826138e-03
      -4.71426845e-02 6.31630281e-03 4.71426845e-02 8.12366698e-03
      9.86740197e-05 3.96755198e-03 5.17992023e-03 4.36747633e-03
      -1.69195555e-04 1.05253805e-03 5.74907870e-04 1.05253805e-03
      -6.04112856e-02 3.94919375e-03 6.05437085e-02 9.34740528e-03
      -3.39304686e-01 4.20885235e-02 3.42807621e-01 5.08012325e-02
      2.64326006e-01 3.36088777e-01 2.74655282e-01 3.36088777e-01
      7.46029720e-04 4.35887836e-02 1.01494398e-02 4.40692492e-02
      -6.20557480e-02 -1.41269492e-03 6.22886941e-02 7.99514912e-03
      -2.48374417e-01 3.48953493e-02 2.52283186e-01 4.55602035e-02
      3.20217431e-01 -8.75663459e-02 3.35401952e-01 1.01574965e-01
      -5.74620732e-04 5.45732444e-03 1.32119209e-02 1.46185448e-02
      -8.95416923e-03 4.48678729e-05 8.99870601e-03 4.31665918e-04
      -3.00634019e-02 3.56178475e-03 3.24812457e-02 7.68415164e-03
      3.83347385e-02 1.70996431e-02 3.83347385e-02 1.77570339e-02
      2.63281749e-03 2.64835614e-03 2.84548616e-03 2.86695245e-03</_>
    <_>
      -4.31683380e-04 3.35716666e-03 9.73040296e-04 3.36013944e-03
      4.00454216e-02 2.35170666e-02 5.77653758e-02 2.38087587e-02
      -9.62463021e-02 1.11506311e-02 9.62618217e-02 1.23453736e-02
      1.65494494e-04 8.26328323e-05 8.92127398e-04 8.26196221e-04
      -4.56592208e-03 -2.14021727e-02 5.92784910e-03 2.49647815e-02
      2.02640936e-01 -2.17153415e-01 2.47888103e-01 2.31358096e-01
      -4.74867910e-01 -5.54151610e-02 5.22710443e-01 1.19754575e-01
      1.60674676e-02 3.75430211e-02 1.82258952e-02 3.75430211e-02
      -1.08853611e-03 -9.27514862e-03 4.09164745e-03 1.06667783e-02
      1.12897232e-01 4.63012084e-02 1.63695291e-01 1.21262968e-01
      -3.68279219e-02 2.05509692e-01 2.90671885e-01 2.28930861e-01
      3.18635032e-02 5.24785407e-02 3.18635032e-02 5.24785407e-02
      3.23490077e-03 -2.89861404e-04 3.24069546e-03 2.48917285e-03
      2.66732797e-02 2.25425959e-02 2.70256102e-02 2.25425959e-02
      2.39543039e-02 3.66713554e-02 2.67424807e-02 3.66713554e-02
      4.34797630e-03 6.75068563e-03 4.34797630e-03 6.75068563e-03</_>
    <_>
      1.52545690e-03 -7.90251419e-03 1.92742224e-03 7.90251419e-03
      2.84563433e-02 -4.01404276e-02 2.84563433e-02 4.01404276e-02
      2.77125891e-02 -3.89978476e-02 2.78963968e-02 3.89978476e-02
      -3.59618966e-03 -7.26801576e-03 3.60546215e-03 7.26801576e-03
      1.89833939e-02 -4.76740040e-02 1.89833939e-02 4.76740040e-02
      2.99262375e-01 -1.42312139e-01 2.99262375e-01 1.66188851e-01
      6.53552338e-02 -1.86390430e-01 1.44952297e-01 1.88480318e-01
      -4.18540873e-02 -5.95483705e-02 4.18540873e-02 5.95483705e-02
      5.13068251e-02 2.42902096e-02 5.15649617e-02 3.82879525e-02
      3.25494468e-01 2.92371869e-01 4.30747986e-01 2.92371869e-01
      -2.50848591e-01 -6.08685687e-02 2.81714469e-01 1.08439870e-01
      -4.56177220e-02 -2.65657622e-02 4.56177220e-02 2.73398422e-02
      1.06484964e-02 1.29051562e-02 1.06484964e-02 1.29051562e-02
      -8.97605903e-03 4.83593121e-02 6.37754574e-02 4.92992178e-02
      -6.76620007e-02 3.14593315e-04 6.76620007e-02 7.76711013e-03
      -4.88686049e-03 -9.63913772e-05 4.88686049e-03 6.97510142e-04</_>
    <_>
      7.66926259e-03 -5.44687593e-03 8.53754953e-03 5.44687593e-03
      2.15270761e-02 -3.29271592e-02 3.00985463e-02 3.29271592e-02
      -1.16629247e-02 -3.90440449e-02 1.27278315e-02 3.90440449e-02
      -3.81792852e-05 -6.21494139e-03 1.56881008e-03 6.21494139e-03
      3.59442681e-02 9.32079181e-03 3.60380225e-02 1.51937930e-02
      1.12320371e-01 -4.62343246e-02 2.49903977e-01 1.17155254e-01
      -1.81748047e-01 -1.99042872e-01 1.82414249e-01 1.99042872e-01
      -2.63300585e-03 -4.36260588e-02 8.65928456e-03 4.36260588e-02
      3.22798155e-02 2.12994255e-02 3.22798155e-02 2.12994255e-02
      9.96618420e-02 2.19036281e-01 2.91698605e-01 2.19036281e-01
      -5.03147721e-01 4.11460809e-02 5.03147721e-01 1.35355592e-01
      -1.98684935e-03 -2.79715173e-02 4.72204946e-03 2.81807613e-02
      8.43625329e-03 3.37601406e-03 8.43625329e-03 3.37601406e-03
      1.22910924e-02 3.34602706e-02 3.83172557e-02 3.34602706e-02
      -1.02891847e-01 3.49412896e-02 1.02891847e-01 3.49412896e-02
      1.89138500e-05 3.41266231e-03 3.66832409e-03 3.41266231e-03</_>
    <_>
      5.60847903e-03 -4.97508212e-04 5.60847903e-03 7.62777752e-04
      5.86301573e-02 -1.50570658e-03 5.86301573e-02 6.79655885e-03
      6.12703525e-02 -3.03288214e-02 7.17954189e-02 3.16538066e-02
      -1.03588030e-02 -1.33078629e-02 1.03588030e-02 1.33078629e-02
      5.11050597e-02 8.67934432e-03 5.11050597e-02 1.34808701e-02
      3.40423912e-01 1.48319483e-01 3.40423912e-01 1.69084951e-01
      -3.86818238e-02 -2.06737205e-01 3.20860863e-01 2.19205528e-01
      -7.55552500e-02 -5.42499162e-02 7.55552500e-02 5.75299039e-02
      7.40313306e-02 7.95726329e-02 7.40313306e-02 7.95726329e-02
      1.16628133e-01 3.07975501e-01 1.44015431e-01 3.07975501e-01
      -2.95146823e-01 9.76200849e-02 2.95146823e-01 1.68703482e-01
      -3.80796753e-02 4.69168499e-02 3.82303856e-02 4.69168499e-02
      6.47074357e-03 1.35951443e-02 6.93079038e-03 1.35951443e-02
      -2.16887407e-02 4.98549454e-02 2.16887407e-02 4.98549454e-02
      -3.53330486e-02 4.82387133e-02 3.53330486e-02 4.82387133e-02
      -3.37835914e-03 7.75212795e-03 3.40503477e-03 7.75212795e-03</_>
    <_>
      9.71995469e-04 -1.18611474e-03 1.38473383e-03 1.47092610e-03
      4.13482403e-03 1.57095515e-03 6.09391555e-03 4.87820245e-03
      -3.17735597e-03 -2.26183343e-04 6.24007639e-03 5.91508672e-03
      -3.56275635e-03 -2.49308813e-03 3.57826077e-03 2.62432033e-03
      8.08712747e-03 -2.50540376e-02 2.24372409e-02 4.45230044e-02
      5.17902300e-02 -3.64306539e-01 6.58338591e-02 3.64306539e-01
      -9.13598984e-02 -3.43489170e-01 1.00505523e-01 3.54532629e-01
      -5.58502553e-03 -1.78251858e-03 3.10622118e-02 4.83287573e-02
      -1.26261665e-02 2.64142007e-02 1.66957751e-02 3.21304873e-02
      1.94584057e-02 3.10982466e-01 6.31208196e-02 3.20797801e-01
      3.92744392e-02 3.50663006e-01 5.41411042e-02 3.50663006e-01
      7.51513382e-03 2.58675721e-02 1.11200530e-02 2.65047997e-02
      4.61903028e-03 -5.04729850e-03 4.79268515e-03 5.21505531e-03
      1.41438982e-02 -3.88652971e-03 1.41438982e-02 5.31270728e-03
      1.89433561e-03 -2.01690011e-03 3.95140704e-03 4.10007080e-03
      -1.82628655e-03 -5.90946802e-05 1.85053237e-03 1.14128343e-03</_>
    <_>
      -9.54628084e-03 -3.02517647e-03 9.56551638e-03 4.51323530e-03
      2.61580888e-02 -5.81319928e-02 5.41732982e-02 5.81319928e-02
      4.58837599e-02 -4.79804864e-03 4.58837599e-02 1.02572432e-02 0. 0.
      0. 0. -6.05500937e-02 3.58289443e-02 6.48979396e-02 4.72175367e-02
      1.45144597e-01 3.23093563e-01 2.97316134e-01 3.81066173e-01
      2.80057520e-01 -9.68954191e-02 2.80057520e-01 1.78331196e-01
      -4.16298979e-04 -7.54749984e-04 8.81854910e-04 1.24515267e-03
      -3.41128936e-04 9.51340981e-03 4.67232009e-03 1.11981547e-02
      -3.09931725e-01 1.34317055e-01 3.11372042e-01 2.02525914e-01
      1.74312577e-01 -1.50565103e-01 1.96326301e-01 2.57558942e-01
      1.77911390e-02 -1.90176796e-02 1.88037846e-02 2.15064194e-02
      8.60246382e-06 2.46063544e-04 3.37698439e-04 3.37698439e-04
      -2.72355732e-02 1.56028802e-02 3.06286830e-02 1.74286719e-02
      -2.59283800e-02 2.04081796e-02 2.91419737e-02 2.33512763e-02
      6.81843190e-03 -2.41992017e-03 6.92548510e-03 3.24980682e-03</_>
    <_>
      -4.47165919e-03 -3.13535635e-03 4.51340573e-03 3.33586708e-03
      -7.35687762e-02 -4.80229221e-02 7.35687762e-02 4.80926000e-02
      -4.27212641e-02 -1.29867150e-02 4.63678911e-02 2.89816372e-02
      6.28001429e-03 5.95289702e-03 6.28001429e-03 6.52561197e-03
      -5.13593145e-02 -2.10541040e-02 5.13593145e-02 2.10541040e-02
      -3.33377808e-01 3.85863706e-02 3.33377808e-01 1.52911559e-01
      -3.74218263e-02 2.67749161e-01 1.31882980e-01 2.91617364e-01
      6.60498813e-02 4.04636301e-02 6.60498813e-02 4.04636301e-02
      -6.98007271e-02 -4.63179350e-02 6.98007271e-02 4.67972122e-02
      -5.11318520e-02 -3.76542240e-01 1.76471949e-01 4.03711230e-01
      2.46899858e-01 -1.40192183e-02 2.65521288e-01 1.65098727e-01
      5.36524653e-02 3.79477963e-02 5.36524653e-02 3.79477963e-02
      -1.06278257e-02 4.35995776e-03 1.06278257e-02 4.37413901e-03
      -1.06414109e-02 3.13207731e-02 2.93622967e-02 3.13207731e-02
      8.03477839e-02 3.27385701e-02 8.03477839e-02 3.27385701e-02
      6.37969421e-03 3.31360800e-03 6.37969421e-03 3.38407280e-03</_>
    <_>
      -3.56341316e-03 -2.44779076e-05 3.57572967e-03 1.45536067e-03
      -5.25373109e-02 2.20073704e-02 5.25373109e-02 2.29105521e-02
      -9.56352986e-03 2.05016825e-02 2.46508699e-02 2.08737887e-02
      8.04210734e-03 3.81418853e-03 8.04210734e-03 3.89658124e-03
      -1.39387110e-02 -3.60299125e-02 1.39387110e-02 3.68626416e-02
      -7.61399865e-02 -1.78546775e-02 1.36424512e-01 2.36071631e-01
      -1.99225396e-02 3.43432486e-01 1.25284657e-01 3.57003242e-01
      3.40722576e-02 3.89327966e-02 3.40722576e-02 3.89327966e-02
      -2.59694103e-02 -3.82718034e-02 2.59694103e-02 4.46711220e-02
      1.62321895e-01 -3.77933145e-01 1.82089582e-01 4.03087616e-01
      2.85142183e-01 -2.15683654e-01 2.85142183e-01 2.25012258e-01
      2.08716486e-02 3.83195002e-03 2.09213141e-02 8.04579724e-03
      -3.93663126e-04 -2.38635205e-03 1.53600576e-03 3.04143946e-03
      1.56226754e-02 3.68519127e-02 1.94266345e-02 3.69554497e-02
      4.94652726e-02 3.71286198e-02 4.94652726e-02 3.71286198e-02
      3.54397018e-03 1.59792326e-05 3.55202705e-03 1.07147684e-03</_>
    <_>
      -6.50146510e-03 -4.07075975e-03 6.51420839e-03 4.13773395e-03
      -7.43894726e-02 -6.66758418e-02 7.43894726e-02 6.67721257e-02
      -3.17364819e-02 -2.64705662e-02 3.24932039e-02 3.13581079e-02
      4.02035192e-03 -4.98805894e-04 4.68263449e-03 1.94010849e-03
      -6.42405450e-02 -5.63451573e-02 6.42405450e-02 5.63451573e-02
      -3.30868006e-01 -1.19815581e-01 3.30868006e-01 2.44390473e-01
      -8.12544003e-02 2.37361953e-01 1.62054881e-01 3.18734765e-01
      6.58435151e-02 5.42905331e-02 6.58435151e-02 5.58039695e-02
      -4.27146442e-02 -7.34037980e-02 4.42280807e-02 7.42093176e-02
      7.97598585e-02 -1.70377314e-01 1.51887536e-01 2.31986970e-01
      3.30585122e-01 1.43916011e-01 3.36585343e-01 2.33495131e-01
      6.23693839e-02 5.85247912e-02 6.23693839e-02 5.85247912e-02
      -5.66380424e-03 6.03417400e-03 5.66380424e-03 6.08845195e-03
      4.17839289e-02 2.72998214e-02 4.17839289e-02 2.74431743e-02
      7.53323957e-02 5.90663031e-02 7.53323957e-02 5.91424964e-02
      4.79880674e-03 5.29418886e-03 4.81463969e-03 5.31334383e-03</_>
    <_>
      1.52497971e-03 -1.76471695e-02 4.65949625e-03 1.76471695e-02
      -6.98443651e-02 -4.33381498e-02 6.98443651e-02 4.33381498e-02
      -5.86126409e-02 -1.80936120e-02 5.86126409e-02 1.83240641e-02
      -5.41962869e-03 -9.33305651e-04 5.41962869e-03 1.01461646e-03
      8.91492218e-02 -9.51264277e-02 8.91492218e-02 9.60455611e-02
      -1.07420031e-02 -3.45362633e-01 2.01465949e-01 3.45362633e-01
      -3.16652656e-01 -8.16830471e-02 3.16652656e-01 9.24343765e-02
      -3.04449704e-02 -1.08035086e-02 3.04449704e-02 1.08822035e-02
      5.15060090e-02 3.45837586e-02 5.15060090e-02 3.45837586e-02
      2.18224749e-01 1.25007898e-01 2.28032783e-01 1.36031434e-01
      -1.80442810e-01 3.23457330e-01 2.06677049e-01 3.23457330e-01
      -5.32112084e-02 5.93263730e-02 5.32112084e-02 5.97822890e-02
      3.97301605e-03 5.45450021e-03 3.97301605e-03 5.45450021e-03
      3.24891582e-02 2.86894739e-02 3.24891582e-02 2.86894739e-02
      2.08113343e-02 4.00121063e-02 2.08113343e-02 4.00121063e-02
      -2.41538417e-03 1.23906415e-02 4.31899773e-03 1.23906415e-02</_>
    <_>
      -1.89173920e-03 4.55860572e-05 1.92335760e-03 5.76719933e-04
      -5.72423860e-02 7.78160850e-03 5.72423860e-02 9.43747349e-03
      -2.38752421e-02 1.47644402e-02 2.59152967e-02 1.52181461e-02
      3.39290034e-03 3.18815047e-03 3.39290034e-03 3.30950040e-03
      -1.48763759e-02 -2.47074086e-02 1.48763759e-02 2.48171203e-02
      -1.56507120e-01 -3.29142846e-02 1.62744150e-01 1.88674718e-01
      -1.31986141e-01 3.11633170e-01 1.41930565e-01 3.11633170e-01
      3.04200593e-02 5.71965314e-02 3.04200593e-02 5.71965314e-02
      -4.27085347e-02 -2.47601569e-02 4.27085347e-02 2.47601569e-02
      -5.57104088e-02 -3.65024298e-01 1.46675631e-01 3.65024298e-01
      2.62145728e-01 -3.26702714e-01 2.62145728e-01 3.39437157e-01
      2.57845875e-02 -4.27257828e-03 2.59679649e-02 2.19111554e-02
      -5.11862803e-03 -7.43447896e-03 5.11862803e-03 7.46609690e-03
      -1.36410929e-02 -8.72990955e-03 1.94525793e-02 1.89978778e-02
      3.46618406e-02 1.98192336e-02 3.46618406e-02 2.66774949e-02
      8.55729263e-03 -6.83140606e-05 8.55729263e-03 2.86933314e-03</_>
    <_>
      6.93507842e-04 -5.37295919e-03 1.03957427e-03 5.37295919e-03
      8.74356460e-03 -3.57884467e-02 9.60404892e-03 3.57884467e-02
      -5.40579110e-02 -5.05073890e-02 5.63806891e-02 5.05073890e-02
      -1.13736708e-02 -2.69891950e-03 1.13736708e-02 3.49061284e-03
      1.45680495e-02 -4.70979027e-02 1.48220472e-02 4.70979027e-02
      7.82281011e-02 -2.46489897e-01 8.51545483e-02 2.46489897e-01
      -3.19638640e-01 -1.44618854e-01 3.19638640e-01 1.70003831e-01
      -2.85717715e-02 1.81218255e-02 2.85717715e-02 2.02106033e-02
      3.76064144e-02 -7.52395019e-02 3.76064144e-02 7.52395019e-02
      3.63546610e-01 3.04232873e-02 3.63546610e-01 1.82723224e-01
      -1.65113643e-01 2.80505508e-01 1.65113643e-01 2.80505508e-01
      -3.46669219e-02 3.17945145e-02 3.46669219e-02 3.17945145e-02
      1.53297782e-02 3.36621073e-03 1.53297782e-02 4.85640112e-03
      1.21447571e-01 8.94499496e-02 1.21447571e-01 8.94499496e-02
      -4.67847325e-02 6.99857995e-02 4.67847325e-02 6.99857995e-02
      -7.49957841e-03 4.81376564e-03 7.49957841e-03 4.81376564e-03</_>
    <_>
      7.20306113e-03 -4.98957234e-03 7.20306113e-03 4.98957234e-03
      5.65455332e-02 -6.85363710e-02 5.65455332e-02 6.85363710e-02
      -1.00641444e-01 -9.72499698e-02 1.00641444e-01 9.72499698e-02
      -1.87495891e-02 -7.63954688e-03 1.87495891e-02 7.79820466e-03
      3.52537148e-02 -3.34272534e-02 3.52537148e-02 3.34272534e-02
      1.71125919e-01 -3.21993649e-01 1.71125919e-01 3.21993649e-01
      -3.81989062e-01 -1.14944473e-01 3.81989062e-01 2.74813831e-01
      -4.96664867e-02 6.40916303e-02 4.96664867e-02 6.55450821e-02
      2.06387714e-02 -2.05871426e-02 2.06387714e-02 2.10716240e-02
      2.80754328e-01 2.05569174e-02 2.80754328e-01 1.27726257e-01
      -3.38511281e-02 1.72294259e-01 1.27094969e-01 1.81917265e-01
      -1.83434486e-02 5.02240174e-02 1.85554605e-02 5.02240174e-02
      6.87521510e-03 1.45713182e-03 6.87521510e-03 2.58060009e-03
      6.74320608e-02 5.25605716e-02 6.81930110e-02 5.25605716e-02
      -8.88401829e-03 3.47486846e-02 1.47749158e-02 3.47486846e-02
      -1.84188387e-03 5.43607073e-03 1.87680649e-03 5.43607073e-03</_>
    <_>
      6.17192069e-04 -8.94956477e-03 2.60307826e-03 8.94956477e-03
      -2.51854695e-02 -3.18926238e-02 2.51854695e-02 3.18926238e-02
      -3.45443562e-02 -3.39776203e-02 3.45443562e-02 3.39776203e-02
      -3.11759813e-03 -5.35977026e-03 3.11759813e-03 5.35977026e-03
      4.82127033e-02 -6.26821071e-02 4.82127033e-02 6.26821071e-02
      8.29836354e-02 -2.63612598e-01 1.75614357e-01 2.63612598e-01
      -2.83032030e-01 -4.49060425e-02 2.83032030e-01 1.44743264e-01
      -5.19630983e-02 -4.61000167e-02 5.19630983e-02 4.61000167e-02
      3.22281495e-02 7.29212817e-03 3.22281495e-02 1.10707022e-02
      2.77601779e-01 9.59458351e-02 2.77601779e-01 1.39424786e-01
      -8.14561099e-02 3.82866353e-01 2.55129278e-01 3.82866353e-01
      -1.02618806e-01 9.38257053e-02 1.02618806e-01 9.62627679e-02
      5.23085427e-03 2.96543207e-04 5.23085427e-03 4.20901546e-04
      6.05203286e-02 1.04325861e-02 6.05203286e-02 1.09592294e-02
      6.40420839e-02 4.48599160e-02 6.40420839e-02 4.52542268e-02
      -5.47176087e-03 1.87916979e-02 6.76518539e-03 1.87916979e-02</_>
    <_>
      5.28575853e-04 6.76807575e-03 1.17930293e-03 7.46275391e-03
      1.36390505e-02 1.57225169e-02 2.37561651e-02 1.92478206e-02
      4.57381569e-02 -9.97925550e-03 6.32030889e-02 1.81549471e-02
      -8.39333236e-03 6.29846286e-03 8.51963181e-03 6.97069941e-03
      -2.13343324e-03 1.18496502e-02 1.58199985e-02 2.98731122e-02
      -2.82935519e-02 3.38638663e-01 9.20820013e-02 3.38638663e-01
      1.51387230e-01 2.13314503e-01 1.57718837e-01 2.49212220e-01
      -9.73018538e-03 4.77637863e-03 1.25142187e-02 2.97176726e-02
      1.31694938e-03 1.89237501e-02 1.46822445e-02 2.06651110e-02
      -1.69143915e-01 -2.19126910e-01 2.31564358e-01 2.63865292e-01
      1.50108755e-01 -4.07393545e-01 1.54067323e-01 4.08713073e-01
      -1.29877524e-02 -1.97521667e-03 3.83874439e-02 2.03519613e-02
      4.65432880e-03 -4.17408906e-03 4.65858448e-03 5.43581648e-03
      -5.54019921e-02 3.63043845e-02 5.82982115e-02 4.36431430e-02
      7.72841228e-03 3.40548232e-02 2.48003844e-02 3.68277654e-02
      5.86957904e-03 6.13410783e-04 8.30598548e-03 2.16992083e-03</_>
    <_>
      6.14527613e-03 -1.39995955e-03 6.17996510e-03 1.60556438e-03
      3.75561416e-02 -1.87455434e-02 4.52159010e-02 2.18227543e-02
      -3.70991156e-02 -4.42795902e-02 5.55744022e-02 4.57825735e-02
      -8.40310287e-03 -8.75029713e-03 9.07870475e-03 8.75029713e-03
      2.83161737e-02 -9.25420783e-03 2.86912341e-02 9.74887051e-03
      1.73375383e-01 -2.10085064e-01 2.11422220e-01 2.18907207e-01
      -4.36373293e-01 -2.99392462e-01 4.36373293e-01 2.99392462e-01
      -1.53360004e-02 1.41689624e-03 2.56384537e-02 2.37557162e-02
      2.20373627e-02 -9.87734925e-03 2.27617901e-02 1.52730048e-02
      1.29301935e-01 -1.53607186e-02 1.44908264e-01 1.50072351e-01
      -1.97987407e-01 1.67600930e-01 2.21059620e-01 2.62733668e-01
      -9.24406294e-03 3.68239097e-02 1.34612136e-02 3.68239097e-02
      7.30470847e-03 3.69504350e-03 7.30470847e-03 3.74690397e-03
      1.77972298e-02 3.76755968e-02 3.13459598e-02 3.81729975e-02
      -1.48919411e-02 2.83622015e-02 2.09940989e-02 2.84417327e-02
      -3.93736700e-04 5.05543919e-03 1.90294185e-03 5.09540737e-03</_>
    <_>
      -1.48267427e-04 -4.69349907e-05 2.45594129e-04 6.50558504e-05
      -5.94438426e-02 -2.63922438e-02 5.94852492e-02 2.64910124e-02
      1.90685503e-02 -7.78604578e-03 5.24646379e-02 2.84991469e-02
      5.25496015e-03 2.71074404e-03 5.29069500e-03 2.77774176e-03
      -8.77120811e-03 -5.50187379e-03 9.49931983e-03 5.90131152e-03
      -3.12365413e-01 8.65000125e-04 3.12365413e-01 1.52185649e-01
      2.93334901e-01 3.09982598e-01 3.84168595e-01 3.11478168e-01
      8.00071866e-04 1.22469408e-03 2.24306714e-03 1.67549308e-03
      -5.11365719e-02 -3.32209319e-02 5.12084104e-02 3.33242156e-02
      1.59836009e-01 -1.85764939e-01 2.82108545e-01 3.09267730e-01
      2.06761703e-01 4.42130901e-02 2.07543820e-01 5.90672567e-02
      -1.68469633e-04 5.64853137e-04 7.89414451e-04 1.36565452e-03
      -4.09332290e-03 -3.55557911e-03 5.73957432e-03 3.68902320e-03
      5.13050109e-02 3.58029753e-02 5.17309941e-02 3.68509069e-02
      6.48733601e-03 4.74374183e-03 7.20855873e-03 5.65745868e-03 0. 0.
      0. 0.</_>
    <_>
      -1.62079974e-04 3.03470898e-07 1.62079974e-04 1.94872468e-04
      -6.62576705e-02 -1.64608359e-02 6.64120391e-02 1.73770059e-02
      5.88991027e-03 -7.41307577e-03 2.80843582e-02 2.05159783e-02
      6.87738415e-03 5.54837473e-03 6.89261639e-03 5.55599062e-03
      -9.14090429e-04 9.60351317e-05 1.05793448e-03 1.45069312e-03
      -3.40693176e-01 -5.19358777e-02 3.41426015e-01 1.68779731e-01
      2.09025174e-01 3.35675687e-01 2.41458312e-01 3.35675687e-01
      1.29939876e-02 8.89885984e-03 1.33624095e-02 1.02026705e-02
      -3.01799439e-02 -1.99746024e-02 3.05228624e-02 2.03777067e-02
      -5.71574830e-02 -2.06194311e-01 2.92772770e-01 2.61591852e-01
      2.93006867e-01 -2.64840610e-02 2.93006867e-01 1.08986445e-01
      4.62285767e-04 -7.01259341e-05 1.41186127e-03 1.18526665e-03
      -1.00597749e-02 -5.42696053e-03 1.00597749e-02 5.54120028e-03
      5.38636446e-02 3.13833617e-02 5.99571355e-02 4.03687209e-02
      1.39912302e-02 2.01452654e-02 1.41508132e-02 2.02030055e-02
      -5.32699451e-05 1.39963187e-04 8.95518606e-05 1.58774419e-04</_>
    <_>
      -1.02058577e-03 -4.44976008e-03 1.02643168e-03 4.44976008e-03
      9.46103712e-04 -2.50130873e-02 6.51500514e-03 2.50130873e-02
      -2.78759673e-02 -2.95172799e-02 2.83112135e-02 2.95172799e-02
      -4.54109162e-03 7.57218688e-04 4.54182271e-03 1.90137455e-03
      -9.64526180e-03 -3.67185064e-02 9.64526180e-03 3.67185064e-02
      6.71870038e-02 -1.90995902e-01 9.84776691e-02 2.05188006e-01
      -7.59645998e-02 4.80780378e-02 1.59742489e-01 1.25172064e-01
      -1.79984942e-02 1.11346217e-02 1.79984942e-02 1.11346217e-02
      -9.94113181e-03 -3.22167240e-02 1.17033562e-02 3.25849019e-02
      5.21099210e-01 1.26537994e-01 5.28683126e-01 2.59840429e-01
      -1.17627181e-01 2.49991387e-01 2.22736210e-01 2.49991387e-01
      -2.94268522e-02 1.31284520e-02 2.94268522e-02 1.39784301e-02
      3.45654855e-03 2.05074670e-03 3.75534128e-03 2.25446071e-03
      8.67082179e-02 4.42591086e-02 8.67082179e-02 4.44996357e-02
      -3.38003337e-02 1.52849806e-02 3.58146764e-02 1.60475932e-02
      -6.05961634e-03 1.15378411e-03 6.05961634e-03 1.40003918e-03</_>
    <_>
      5.90987736e-03 -6.83866383e-04 5.90987736e-03 7.82917487e-04
      3.26110981e-02 -1.23348022e-02 3.26110981e-02 1.32044470e-02
      -7.83200189e-02 -4.33092862e-02 7.83200189e-02 4.33092862e-02
      -4.05772077e-03 -2.38815928e-03 4.33137082e-03 2.43088813e-03
      2.61423513e-02 -1.34452600e-02 2.61423513e-02 1.34452600e-02
      1.58838287e-01 -2.38932982e-01 2.04719365e-01 2.38932982e-01
      -5.25963426e-01 -1.56903863e-01 5.29172719e-01 2.56119668e-01
      9.34791565e-03 2.92427652e-02 1.14470022e-02 3.09066400e-02
      1.27332807e-02 -1.07575040e-02 1.27332807e-02 1.08944159e-02
      1.07087225e-01 -6.26267791e-02 1.35130823e-01 1.07982375e-01
      -9.34690535e-02 1.93031117e-01 1.11835986e-01 1.93031117e-01
      1.01634143e-02 3.78835015e-02 1.03003262e-02 3.78835015e-02
      4.55221161e-03 -9.48280504e-04 4.55221161e-03 1.54973718e-03
      2.90788244e-02 2.86830571e-02 2.93499529e-02 2.86830571e-02
      2.01599044e-03 2.52812225e-02 5.34675410e-03 2.52812225e-02
      9.32975207e-04 4.03998606e-03 1.04718155e-03 4.03998606e-03</_>
    <_>
      -2.53539998e-04 4.39948693e-04 8.20491929e-04 1.19262224e-03
      -4.61278223e-02 -1.60350110e-02 4.65425551e-02 3.09731197e-02
      1.28423497e-02 -1.24450494e-02 3.44928466e-02 4.71468195e-02
      3.53355636e-03 -4.85927099e-04 3.97028448e-03 2.91290972e-03
      -1.09451299e-03 1.32426605e-04 5.55487629e-03 1.21124508e-02
      -3.33645701e-01 8.49927217e-02 3.33645701e-01 1.17580675e-01
      1.49014980e-01 2.24568114e-01 2.47777596e-01 2.96395153e-01
      2.23449953e-02 7.58038089e-03 2.75393780e-02 1.55846588e-02
      -2.56193685e-03 -5.21854591e-03 5.58286021e-03 6.83059962e-03
      -3.51839900e-01 -7.35499710e-02 3.53723705e-01 1.61235228e-01
      2.72082835e-01 -1.22674987e-01 3.18072915e-01 2.16091797e-01
      6.01379573e-03 -2.56432290e-03 2.31814757e-02 1.16682285e-02
      2.12984538e-04 1.49234605e-04 9.05813708e-04 7.54183158e-04
      -3.50843556e-02 -6.67031389e-03 3.51063460e-02 2.55108811e-02
      2.35767476e-03 -4.37944708e-03 2.74910033e-02 3.60100716e-02
      6.43253746e-03 2.48121010e-04 6.45437883e-03 1.49863039e-03</_>
    <_>
      -1.81614351e-03 1.52744091e-04 2.00180896e-03 6.21258281e-04
      -3.98526229e-02 -1.68780773e-03 4.14267257e-02 1.41774081e-02
      6.18524775e-02 8.87031015e-03 6.32083565e-02 1.35763530e-02
      2.51637516e-03 -7.39419600e-04 3.56615591e-03 9.82298166e-04
      -1.94810741e-02 -3.23880144e-04 2.11837105e-02 1.21194469e-02
      -1.49574652e-01 3.39488596e-01 2.24264458e-01 4.01555270e-01
      3.21368396e-01 1.47749573e-01 3.26745063e-01 1.59956560e-01
      2.30420716e-02 2.30476703e-03 2.78528202e-02 1.27465148e-02
      -3.36919283e-03 -2.60001281e-03 5.66417165e-03 1.08623970e-02
      -1.68312728e-01 -2.02772915e-01 1.72705784e-01 2.40645185e-01
      2.18756467e-01 -1.48568437e-01 3.16985399e-01 2.02596426e-01
      2.02905405e-02 -9.88580985e-04 2.60804817e-02 8.60053673e-03
      -2.42261542e-03 -1.08906301e-04 2.60009640e-03 5.76416613e-04
      -2.75951214e-02 -1.00894785e-02 3.87507603e-02 2.00497210e-02
      5.51503152e-02 1.05562853e-02 5.55227213e-02 1.69504527e-02
      3.56843835e-03 7.38537274e-05 4.53895656e-03 7.28966668e-04</_>
    <_>
      2.96459912e-05 -9.58427263e-05 6.77424949e-04 5.98964514e-04
      4.64113383e-03 4.28599399e-03 7.78184552e-03 5.00269653e-03
      -5.42653957e-03 -1.91341864e-03 7.18060788e-03 4.46494995e-03
      -4.49800445e-03 -3.02029680e-03 4.62770276e-03 3.12358583e-03
      1.22611178e-02 -3.58962305e-02 2.01741457e-02 4.52282317e-02
      1.96032692e-02 -3.82132143e-01 5.40599041e-02 3.82132143e-01
      -1.06277235e-01 -2.99033105e-01 1.21777557e-01 3.39916736e-01
      5.13757579e-03 1.52496202e-02 3.29021588e-02 4.98082489e-02
      -1.06036058e-02 3.49445492e-02 1.25488937e-02 3.74698490e-02
      3.43171023e-02 3.27240199e-01 5.04319146e-02 3.31359684e-01
      5.56340814e-02 3.39996517e-01 7.31095448e-02 3.41974199e-01
      2.21844600e-03 1.38933472e-02 1.06178327e-02 1.62526965e-02
      3.58390226e-03 -3.81660694e-03 3.63684958e-03 3.87588027e-03
      1.30493594e-02 -2.93535064e-03 1.30493594e-02 4.26430115e-03
      -1.17632875e-03 -1.26430881e-03 6.27573673e-03 2.27737054e-03
      -2.79918779e-03 -8.31170066e-04 2.79918779e-03 1.33915129e-03</_>
    <_>
      -4.55076247e-03 -4.00995545e-04 9.21856891e-03 1.80146599e-03
      5.48570231e-02 -1.34766451e-03 5.48570231e-02 8.83319508e-03
      -1.71165373e-02 -8.27892777e-03 2.45431885e-02 1.09755620e-02
      -1.25435542e-03 -1.39873498e-03 1.90942269e-03 1.78794656e-03
      -4.64964323e-02 -2.94247805e-03 6.88076392e-02 7.34158885e-03
      3.69464159e-01 -1.31477639e-01 3.69464159e-01 1.35907024e-01
      -1.86617941e-01 -5.01412377e-02 2.29960263e-01 1.60639808e-01
      -1.66334044e-02 -2.14667767e-02 1.86823662e-02 2.42965557e-02
      -2.72510145e-02 5.69109153e-03 4.50282432e-02 1.63204633e-02
      3.30977082e-01 2.27737591e-01 3.43465298e-01 2.27737591e-01
      -1.63977042e-01 1.18009269e-01 3.79984736e-01 1.69849873e-01
      -7.66569190e-03 -3.04076751e-03 1.88693441e-02 1.32170282e-02
      5.87545987e-03 1.48333213e-03 7.34347198e-03 2.15843273e-03
      3.58593464e-02 1.60262063e-02 4.58433665e-02 1.79371871e-02
      -5.54593839e-02 1.41123740e-03 5.54593839e-02 9.37437825e-03
      -3.66808788e-04 -1.04024453e-04 2.00371887e-03 6.16641890e-04</_>
    <_>
      5.66391373e-06 -1.33939553e-04 9.71452318e-05 2.79192755e-04
      -5.58507591e-02 -1.05471611e-02 6.57097772e-02 2.46722270e-02
      3.53637189e-02 1.43243382e-02 4.98683602e-02 2.78809704e-02
      3.43801151e-03 2.27124896e-03 3.44738015e-03 2.35561375e-03
      -4.06754389e-03 -3.76476068e-03 4.99962736e-03 4.29080753e-03
      -2.04557359e-01 1.01576209e-01 2.68259019e-01 2.71325916e-01
      2.41708368e-01 2.54195809e-01 2.51758724e-01 2.60688871e-01
      1.24449818e-03 7.22708937e-04 2.23915791e-03 2.19957717e-03
      -4.00337987e-02 -2.01975517e-02 4.01553512e-02 2.19993480e-02
      3.64262648e-02 -2.21394062e-01 3.21027339e-01 4.30477262e-01
      2.72036970e-01 -2.89796125e-02 2.75725484e-01 1.73660815e-01
      9.90873203e-04 6.88892251e-05 1.45931647e-03 1.36536721e-03
      -9.83023085e-03 -5.83038386e-03 9.83023085e-03 7.36858090e-03
      6.15475997e-02 3.63913998e-02 6.31271750e-02 4.04784493e-02
      5.91997930e-04 2.06758641e-03 1.40556507e-03 2.53509427e-03
      1.51080341e-04 5.11855869e-05 2.56795844e-04 1.75305599e-04</_>
    <_>
      7.01802783e-03 -1.53140491e-03 7.01802783e-03 1.60020171e-03
      2.35924721e-02 -1.99745595e-02 2.59415247e-02 2.06101257e-02
      -1.08171955e-01 -4.54104356e-02 1.08171955e-01 4.54104356e-02
      -3.30347015e-04 -2.28706835e-04 9.18075501e-04 8.35025799e-04
      2.77385376e-02 -1.89888030e-02 2.77385376e-02 1.89888030e-02
      6.76526725e-02 -3.00822884e-01 2.01487243e-01 3.00822884e-01
      -4.78503406e-01 1.39264455e-02 5.05403936e-01 2.91882962e-01
      2.08475254e-02 4.59419750e-02 2.08475254e-02 4.59419750e-02
      1.61439907e-02 -1.43683152e-02 1.62131228e-02 1.43683152e-02
      1.24181785e-01 -1.73017401e-02 1.73290163e-01 1.23851404e-01
      -2.32325066e-02 2.12744936e-01 6.35503605e-02 2.12744936e-01
      1.15330964e-02 3.02444976e-02 1.15330964e-02 3.02444976e-02
      3.50025995e-03 -2.11299164e-03 3.50025995e-03 2.26944662e-03
      4.47257459e-02 3.09533775e-02 4.47257459e-02 3.09533775e-02
      1.69609732e-03 2.93037873e-02 7.73430523e-03 2.93037873e-02
      1.61714677e-03 5.32437442e-03 1.61824282e-03 5.32437442e-03</_>
    <_>
      -2.70635495e-03 -2.69375113e-03 4.10314696e-03 2.85277190e-03
      -2.49774065e-02 -2.22321972e-02 2.49774065e-02 2.22321972e-02
      -2.14863252e-02 -2.33812127e-02 2.14863252e-02 2.33812127e-02
      -3.72314663e-03 -5.80190308e-03 3.74331209e-03 5.80190308e-03
      1.59795396e-02 -5.21851517e-02 2.14173160e-02 5.22803739e-02
      -7.54421428e-02 -1.11037493e-01 1.45085841e-01 1.43421441e-01
      -2.59404510e-01 -4.60673124e-02 2.59404510e-01 1.64618194e-01
      -6.06151670e-03 -3.87607072e-03 8.50660913e-03 8.69218260e-03
      1.75423808e-02 1.60651235e-03 1.75423808e-02 6.30756561e-03
      2.41781667e-01 9.97785106e-02 2.43027195e-01 1.01015829e-01
      -6.15257844e-02 5.27011275e-01 2.13458151e-01 5.27011275e-01
      -3.09994835e-02 8.24887082e-02 3.54057960e-02 8.37340876e-02
      2.79742223e-03 -3.68939654e-05 2.79742223e-03 6.26980676e-04
      4.99791130e-02 4.85042023e-04 4.99791130e-02 4.87583224e-03
      2.17439868e-02 1.52980257e-03 2.90789977e-02 6.51067449e-03
      -9.51488782e-03 -3.04990797e-03 9.51520819e-03 3.04990797e-03</_>
    <_>
      4.33732569e-03 -6.56842196e-04 5.81860961e-03 2.44366028e-03
      -1.67463347e-02 1.95185142e-03 2.44224239e-02 8.21255147e-03
      5.74607635e-04 -1.86643645e-03 2.02373117e-02 9.22841579e-03
      -6.61943899e-03 7.06994251e-05 9.91399307e-03 1.48637104e-03
      3.85653344e-03 1.58710033e-02 2.02011652e-02 2.25683097e-02
      -1.13506518e-01 -7.35833272e-02 1.88975647e-01 1.58725232e-01
      3.31370384e-02 3.03704917e-01 1.31449133e-01 3.66658241e-01
      -1.64280254e-02 6.59186766e-02 2.48401053e-02 6.74260035e-02
      -2.58472841e-02 -2.48001870e-02 2.92360224e-02 2.69758347e-02
      7.60533661e-02 -2.02333495e-01 3.66666466e-01 2.11104378e-01
      4.19490069e-01 4.06506173e-02 4.36980128e-01 1.81597367e-01
      -9.13283788e-03 2.09212434e-02 1.13476226e-02 2.30334215e-02
      -5.79736009e-03 -3.11279716e-03 5.81681635e-03 4.19950485e-03
      -1.98348742e-02 -1.25722717e-02 5.70376478e-02 1.75596233e-02
      1.10132463e-01 -3.61289904e-02 1.13250092e-01 3.63965333e-02
      1.99668357e-05 2.85097311e-04 1.69284060e-03 2.05812650e-03</_>
    <_>
      2.28669541e-03 -9.80804252e-05 2.30154861e-03 2.34663673e-03
